Language model created by QuickLM on Tue Sep 29 12:48:51 EDT 2015
Copyright (c) 1996-2010 Carnegie Mellon University and Alexander I. Rudnicky

The model is in standard ARPA format, designed by Doug Paul while he was at MITRE.

The code that was used to produce this language model is available in Open Source.
Please visit http://www.speech.cs.cmu.edu/tools/ for more information

The (fixed) discount mass is 0.5. The backoffs are computed using the ratio method.
This model based on a corpus of 631 sentences and 538 words

\data\
ngram 1=538
ngram 2=1515
ngram 3=1706

\1-grams:
-3.8421 9GAG -0.2990
-1.0421 </s> -0.3010
-1.0421 <s> -0.2024
-2.2623 A -0.2959
-3.8421 ABLE -0.2980
-3.8421 ABORT -0.2597
-3.5411 ABOUT -0.2989
-3.8421 AC -0.3010
-3.8421 ACCESS -0.2980
-3.5411 ACTIVATE -0.3004
-3.8421 ADAPTION -0.2597
-3.8421 ADOBE -0.3010
-3.8421 ADVANCED -0.3008
-3.8421 AFTER -0.3005
-3.5411 AGAIN -0.2597
-3.8421 AGE -0.2597
-3.2400 ALARM -0.2560
-3.8421 ALEXANDER -0.2597
-3.1431 ALL -0.3005
-3.8421 ALPHA -0.2597
-3.0640 AM -0.2573
-3.2400 AN -0.3008
-2.9970 AND -0.2981
-3.3650 ANGELES -0.2559
-3.5411 ANNOYING -0.2597
-3.8421 ANY -0.3002
-3.8421 ANYMORE -0.2597
-3.8421 ANYTHING -0.2992
-3.3650 APPS -0.2987
-3.5411 ARDUINO -0.2597
-2.6117 ARE -0.2889
-3.8421 AREA -0.2597
-3.8421 ARTICLE -0.2597
-3.8421 ARTISTS -0.2597
-3.2400 ASK -0.2949
-2.4619 AT -0.2930
-3.8421 ATHENS -0.2597
-3.8421 AUDIO -0.3008
-3.8421 AUSTRALIAN -0.2597
-3.8421 AZIZE -0.2597
-3.5411 BACK -0.2597
-3.8421 BAND -0.2597
-3.8421 BASIC -0.3008
-3.8421 BB -0.3010
-3.2400 BE -0.3005
-3.8421 BEATSTEAKS -0.2597
-3.8421 BENEDIKT -0.2597
-3.8421 BERLIN -0.2597
-3.5411 BEST -0.3009
-3.8421 BEYONCE -0.2597
-3.5411 BING -0.2558
-3.8421 BIRTHDAY -0.2976
-3.5411 BLOG -0.2976
-3.5411 BOB -0.3009
-3.8421 BORING -0.2597
-3.5411 BOSS -0.2597
-3.8421 BOSSE -0.2597
-3.3650 BRING -0.2975
-3.8421 BRITISH -0.2597
-3.3650 BROWSER -0.2559
-3.8421 BRUNO -0.3010
-3.3650 BUNDESLIGA -0.2588
-3.5411 BUS -0.2596
-3.0640 BYE -0.2593
-3.5411 CALCULATOR -0.2597
-3.8421 CALL -0.2975
-2.2189 CAN -0.2918
-3.8421 CANADIAN -0.2597
-3.8421 CANCEL -0.2597
-3.8421 CARLA -0.2597
-3.8421 CATCH -0.2948
-3.5411 CATS -0.2597
-3.0640 CHANGE -0.3005
-3.3650 CHECK -0.2946
-3.8421 CHEF -0.2597
-3.5411 CHICAGO -0.2597
-3.8421 CHRISTIAN -0.2597
-3.8421 CHRISTOPH -0.2597
-3.8421 CHROME -0.2597
-3.8421 CLEVER -0.2597
-3.3650 CLOSE -0.2945
-3.3650 CLOSEST -0.3008
-3.8421 COLOGNE -0.2597
-3.8421 COLON -0.2597
-3.8421 COME -0.3009
-3.8421 COMING -0.2597
-3.8421 COMMA -0.2597
-3.8421 COMMAND -0.2597
-3.5411 COMMANDS -0.2925
-3.8421 COMPLETELY -0.3010
-3.5411 COMPUTER -0.2560
-3.8421 CONNECTED -0.2980
-3.5411 CONNECTION -0.2592
-3.5411 COOL -0.2596
-3.8421 CORRECT -0.2597
-3.5411 COULD -0.2946
-3.8421 COUNT -0.2597
-3.8421 CREATE -0.2986
-3.8421 CREATED -0.2960
-3.5411 CREO -0.2596
-3.8421 CRO -0.2597
-3.8421 CU -0.2597
-3.5411 DAFT -0.3009
-3.5411 DATA -0.2597
-3.5411 DATE -0.2589
-3.1431 DAY -0.2538
-3.3650 DAYS -0.2597
-3.8421 DC -0.2597
-3.8421 DEACTIVATE -0.3005
-3.8421 DECREASE -0.3008
-3.8421 DEFAULT -0.3008
-3.8421 DEFINITELY -0.3008
-3.8421 DEICHKIND -0.2597
-3.8421 DENNIS -0.2597
-3.5411 DIRECTIONS -0.2975
-3.8421 DISABLE -0.3005
-3.8421 DISTANCE -0.2597
-2.5411 DO -0.2489
-3.5411 DOES -0.2998
-3.8421 DON'T -0.3009
-3.8421 DONE -0.2597
-3.8421 DRUGSTORE -0.2597
-3.8421 DUESSELDORF -0.2597
-3.8421 DUISBURG -0.2597
-3.8421 DYLAN -0.2597
-2.9970 EIGHT -0.2558
-3.5411 EIGHTEEN -0.2574
-3.8421 EIGHTY -0.2597
-3.8421 ELEMENTS -0.2597
-3.2400 ELEVEN -0.2558
-3.8421 ELKE -0.2597
-3.5411 EMAIL -0.2597
-3.8421 EMINEM -0.2597
-3.8421 ENABLE -0.3005
-3.8421 END -0.2597
-3.2400 ENERGY -0.2594
-3.2400 ENGINE -0.2597
-3.2400 ENGLISH -0.2559
-3.8421 ENTER -0.3007
-3.8421 ESSEN -0.2597
-3.8421 EVER -0.2597
-3.5411 EXCEL -0.2592
-3.3650 EXIT -0.2597
-3.8421 EXITING -0.2597
-3.8421 EXPLORER -0.2597
-3.0640 FACEBOOK -0.2558
-3.8421 FAMOUS -0.3010
-3.8421 FAST -0.2597
-3.5411 FAVORITE -0.3002
-3.5411 FEELING -0.2593
-3.8421 FETCH -0.2948
-3.2400 FIFTEEN -0.2574
-3.5411 FIFTY -0.2596
-3.0640 FIND -0.2873
-3.5411 FIREFOX -0.2595
-3.3650 FIRST -0.2592
-2.7629 FIVE -0.2563
-3.8421 FLIGHT -0.2597
-3.5411 FLORIAN -0.2597
-3.8421 FOLDER -0.2597
-3.8421 FOOD -0.3010
-2.3370 FOR -0.2410
-3.0640 FORTY -0.2565
-3.1431 FOUR -0.2563
-3.5411 FOURTEEN -0.2574
-3.3650 FRANCISCO -0.2563
-3.8421 FRANK -0.2597
-3.8421 FRANKFURT -0.2597
-2.9390 FROM -0.2567
-3.8421 FULL -0.3007
-3.3650 FUNNY -0.2596
-3.8421 FUTURE -0.3010
-3.8421 GAME -0.3003
-3.8421 GEOLOCATION -0.2597
-2.9970 GERMAN -0.2557
-3.5411 GET -0.3009
-3.3650 GIVE -0.2975
-3.2400 GO -0.2558
-3.5411 GOING -0.2583
-3.8421 GONE -0.2597
-3.0640 GOOD -0.2567
-3.8421 GOOD-BYE -0.2597
-3.5411 GOODBYE -0.2597
-2.9970 GOOGLE -0.2529
-3.3650 GRAMMAR -0.3002
-3.8421 GREECE -0.2597
-3.8421 GUITAR -0.3009
-3.8421 HAMBURG -0.2597
-3.8421 HAPPENING -0.3006
-3.8421 HAPPENS -0.3009
-3.5411 HAVE -0.2986
-2.9390 HEADLINE -0.2572
-3.1431 HEAR -0.2538
-3.8421 HELL -0.2991
-3.8421 HELLO -0.2597
-3.3650 HELP -0.2923
-3.3650 HENDRIX -0.2597
-2.9970 HERE -0.2563
-3.5411 HEY -0.2596
-3.8421 HI -0.2597
-3.8421 HIDE -0.3009
-3.8421 HOLD -0.2990
-2.9970 HOME -0.2557
-3.8421 HOSPITAL -0.3010
-3.3650 HOUR -0.2597
-3.1431 HOURS -0.2597
-2.8007 HOW -0.2543
-3.3650 HOW'S -0.2948
-2.3797 I -0.2535
-3.8421 I'D -0.3005
-2.9390 I'M -0.3003
-3.8421 ID -0.3005
-3.3650 IF -0.2960
-3.8421 IGOR -0.2597
-3.8421 IMAGEJ -0.2597
-3.8421 IMPRESSED -0.2597
-2.1097 IN -0.2857
-3.8421 INCREASE -0.3008
-3.8421 INDIAN -0.2597
-3.5411 INSIDE -0.2985
-3.8421 INSTALL -0.3009
-3.8421 INTERESTS -0.2597
-3.3650 INTERNET -0.2595
-2.3507 IS -0.2849
-3.8421 ISABELLA -0.2597
-3.5411 ISN'T -0.3005
-2.8879 IT -0.2576
-3.3650 IT'S -0.2985
-3.8421 ITUNES -0.2597
-3.8421 JACKSON -0.2597
-3.8421 JAY -0.3010
-3.8421 JENS -0.2597
-3.8421 JESSICA -0.2597
-3.8421 JESSY -0.2597
-3.5411 JIMI -0.3008
-3.8421 JOE -0.2597
-3.8421 JOHANNES -0.2597
-3.8421 JUSTIN -0.3010
-3.8421 KATY -0.3010
-3.8421 KIDS -0.2976
-3.8421 KIND -0.2997
-3.8421 KING -0.2597
-3.8421 KINGS -0.2997
-3.8421 KLAUS -0.2597
-2.8879 KNOW -0.2942
-3.5411 KYUSS -0.2597
-3.0640 LANGUAGE -0.2980
-3.3650 LAST -0.2596
-3.8421 LATER -0.2597
-3.5411 LATEST -0.3000
-3.5411 LEARNING -0.2597
-3.5411 LEAVE -0.2597
-3.8421 LEON -0.2597
-3.3650 LET'S -0.3004
-3.8421 LIFE -0.2597
-3.5411 LIGHTS -0.2976
-2.9390 LIKE -0.2933
-3.8421 LINUX -0.2597
-3.2400 LIST -0.2582
-3.5411 LISTEN -0.2563
-3.8421 LISTENING -0.2597
-3.5411 LIVE -0.2597
-2.8421 LOAD -0.2903
-3.8421 LOCATE -0.2975
-2.9970 LOCATION -0.2582
-3.3650 LONDON -0.2597
-3.8421 LOOK -0.2990
-3.1431 LOOKING -0.2990
-3.3650 LOS -0.3008
-3.8421 LOUD -0.2597
-3.8421 MAC -0.2597
-3.8421 MADE -0.2960
-3.8421 MADONNA -0.2597
-3.2400 MAKE -0.2981
-3.8421 MANUEL -0.2597
-3.8421 MAPS -0.2597
-3.8421 MARKET -0.3003
-3.8421 MARLEY -0.2597
-3.8421 MARS -0.2597
-3.8421 MARVIN -0.2597
-3.8421 MATCH -0.2980
-3.8421 MATHIAS -0.2597
-3.5411 MATLAB -0.2575
-3.8421 MAY -0.3006
-2.0862 ME -0.2321
-3.3650 MEAN -0.2597
-3.8421 MEANING -0.2997
-3.8421 MEETING -0.3005
-3.8421 MEHDI -0.2597
-3.3650 MEMORY -0.2597
-3.8421 METALLICA -0.2597
-3.5411 MICHAEL -0.2596
-3.2400 MICROSOFT -0.3007
-3.5411 MINUTE -0.2597
-2.3106 MINUTES -0.2525
-2.7629 MODE -0.2572
-3.5411 MORNING -0.2597
-3.8421 MOST -0.3010
-3.8421 MOZILLA -0.3009
-3.5411 MUNICH -0.2597
-2.6117 MUSIC -0.2556
-2.3370 MY -0.2933
-2.8421 NAME -0.2574
-3.8421 NAMES -0.2597
-3.8421 NEAREST -0.3010
-3.8421 NEED -0.3008
-3.1431 NEW -0.3006
-2.6960 NEWS -0.2522
-3.2400 NEXT -0.3007
-3.3650 NICE -0.2561
-3.1431 NINE -0.2558
-3.5411 NINETEEN -0.2574
-3.5411 NINETY -0.2596
-3.8421 NIRVANA -0.2597
-2.8421 NO -0.2567
-3.5411 NOTE -0.2997
-3.8421 NOTHING -0.2597
-3.3650 NOW -0.2597
-3.8421 NP -0.2597
-3.1431 NUMBER -0.2977
-2.6380 O'CLOCK -0.2560
-2.4997 OF -0.2846
-2.7629 OFF -0.2506
-3.2400 OK -0.2590
-3.8421 OLD -0.3000
-2.5199 ON -0.2479
-2.6660 ONE -0.2559
-3.2400 ONLINE -0.2597
-2.3797 OPEN -0.2878
-3.5411 OUR -0.3005
-3.8421 OUT -0.3004
-3.8421 OVEN -0.2976
-3.5411 PAGE -0.2559
-3.5411 PARIS -0.2563
-3.5411 PC -0.2575
-3.8421 PDF -0.3010
-3.5411 PERCENT -0.2597
-3.8421 PERFORMANCE -0.2997
-3.8421 PERRY -0.2597
-3.1431 PERSONAL -0.3000
-3.5411 PHARMACY -0.2592
-3.8421 PHILIPP -0.2597
-3.5411 PHYSICS -0.3002
-3.1431 PICTURES -0.2582
-3.5411 PLACE -0.2563
-2.9970 PLAY -0.2983
-3.5411 PLAYER -0.2596
-3.5411 PLAYING -0.2975
-2.1017 PLEASE -0.2500
-2.9970 PM -0.2597
-3.8421 POINT -0.2597
-3.8421 POLICE -0.2597
-3.1431 POWER -0.2594
-3.5411 POWERPOINT -0.2575
-3.8421 PRETTY -0.3009
-3.8421 PROBLEM -0.2597
-3.8421 PROBLEMO -0.2597
-3.8421 PROCESS -0.2597
-2.8879 PROGRAM -0.2597
-3.5411 PROGRAMM -0.2597
-3.8421 PROGRAMMED -0.2960
-3.5411 PUNK -0.2597
-3.1431 QUESTION -0.2576
-3.8421 QUICKLY -0.2597
-3.5411 QUIET -0.2559
-3.8421 QUIT -0.2597
-3.8421 QUOTE -0.2597
-3.2400 READ -0.2891
-3.8421 READER -0.2597
-3.5411 REALLY -0.3005
-3.5411 RECOGNITION -0.2597
-3.5411 RECORDING -0.2597
-3.5411 RELOAD -0.3009
-2.7282 REMIND -0.2975
-3.5411 REMINDER -0.2956
-3.8421 REPEAT -0.2597
-3.8421 RESTRICTED -0.3010
-3.8421 RESTRICTIONS -0.2597
-3.5411 RESULTS -0.2597
-3.2400 RIGHT -0.2595
-3.8421 RIHANNA -0.2597
-3.8421 ROLLING -0.3010
-3.8421 ROOTS -0.2597
-3.8421 RUN -0.2986
-3.3650 RUNNING -0.2593
-3.8421 SAID -0.2597
-3.3650 SAN -0.3008
-3.3650 SAVE -0.2998
-3.3650 SAVER -0.3003
-3.5411 SAVING -0.3003
-3.3650 SAY -0.3002
-2.5634 SEARCH -0.2952
-3.8421 SEARCHING -0.2986
-3.2400 SECOND -0.2592
-3.8421 SECONDS -0.2597
-3.3650 SEE -0.2937
-3.8421 SELF -0.3008
-3.8421 SEND -0.3009
-3.2400 SERIES -0.2559
-2.6960 SET -0.2973
-3.3650 SETTINGS -0.2559
-3.2400 SEVEN -0.2558
-3.5411 SEVENTEEN -0.2574
-3.8421 SEVENTY -0.2597
-3.8421 SHAKIRA -0.2597
-3.8421 SHARE -0.3010
-3.8421 SHORT -0.3010
-2.4997 SHOW -0.2880
-3.5411 SHUTDOWN -0.2947
-3.5411 SILENT -0.2589
-3.8421 SIMON -0.2597
-3.2400 SIX -0.2558
-3.5411 SIXTEEN -0.2574
-3.8421 SIXTY -0.2597
-3.8421 SLAYER -0.2597
-3.8421 SO -0.3008
-3.5411 SOCCER -0.3002
-2.8007 SOME -0.2995
-3.2400 SOMETHING -0.2594
-3.8421 SOMETIMES -0.2597
-3.8421 SONGS -0.2597
-3.8421 SORRY -0.2597
-3.8421 SOUND -0.3008
-3.8421 SOUNDS -0.3007
-2.9970 SPEAK -0.3002
-3.8421 SPEAKER -0.3010
-3.2400 SPEECH -0.3007
-3.8421 SPORTS -0.3002
-3.3650 SPOTIFY -0.2570
-2.5868 START -0.2480
-3.8421 STARTING -0.2597
-3.8421 STEFAN -0.2597
-3.8421 STING -0.2597
-3.8421 STONES -0.2597
-2.9970 STOP -0.2980
-3.8421 STORE -0.2597
-3.5411 STOVE -0.2597
-3.5411 STRIPES -0.2597
-3.8421 SUPERMARKET -0.2976
-2.7629 SWITCH -0.2955
-3.8421 TAKE -0.2948
-3.8421 TALK -0.2980
-2.8879 TEACH -0.2952
-3.8421 TELEVISION -0.2597
-3.3650 TELL -0.2975
-2.9970 TEN -0.2558
-3.3650 TEST -0.2597
-3.3650 THANK -0.2960
-3.5411 THANKS -0.2595
-2.8007 THAT -0.2539
-3.3650 THAT'S -0.3008
-1.8465 THE -0.2881
-3.8421 THEM -0.2976
-3.5411 THEN -0.2568
-3.5411 THERE -0.3006
-3.5411 THESE -0.3009
-3.8421 THEY -0.3010
-3.8421 THING -0.2960
-3.3650 THIRD -0.2592
-3.5411 THIRTEEN -0.2574
-3.0640 THIRTY -0.2565
-2.9970 THIS -0.2947
-3.8421 THOMAS -0.2597
-2.8879 THREE -0.2555
-3.3650 THRESHOLD -0.2597
-3.8421 THX -0.2597
-3.8421 TIMBERLAKE -0.2597
-3.3650 TIME -0.2597
-3.1431 TIMER -0.2956
-3.0640 TIMERS -0.2557
-2.1519 TO -0.2814
-2.8007 TODAY -0.2581
-3.8421 TOMMY -0.2597
-2.9390 TOMORROW -0.2577
-3.8421 TOP -0.2597
-3.8421 TOTALLY -0.3008
-3.0640 TRAIN -0.2553
-3.8421 TRASH -0.3010
-3.8421 TRUE -0.2597
-3.5411 TURN -0.2990
-2.7629 TV -0.2548
-3.2400 TWELVE -0.2559
-2.9390 TWENTY -0.2537
-3.3650 TWITTER -0.2975
-2.7629 TWO -0.2555
-3.8421 UNDERSTAND -0.2597
-3.5411 UP -0.2990
-3.3650 UPDATE -0.2985
-3.5411 UPDATES -0.2597
-3.2400 US -0.2596
-3.8421 USHER -0.2597
-3.8421 USING -0.3008
-3.8421 UWE -0.2597
-3.8421 VERY -0.3010
-3.8421 VIDEOS -0.2997
-3.3650 VOICE -0.3008
-3.2400 VOLUME -0.2563
-3.5411 WAKE -0.2973
-3.5411 WANT -0.2980
-3.8421 WAS -0.3010
-3.3650 WATCH -0.2924
-3.5411 WAY -0.3001
-3.2400 WE -0.2589
-2.6660 WEATHER -0.2519
-3.1431 WEB -0.2584
-2.4271 WHAT -0.2819
-3.0640 WHAT'S -0.2989
-3.1431 WHATS -0.2914
-2.8421 WHEN -0.2916
-2.9390 WHERE -0.2965
-3.5411 WHITE -0.3009
-2.9390 WHO -0.2975
-3.3650 WHY -0.2585
-3.8421 WIKI -0.2990
-3.5411 WIKIPEDIA -0.2990
-3.5411 WILL -0.2529
-3.5411 WINDOWS -0.2597
-3.5411 WITH -0.2529
-3.8421 WOLFGANG -0.2597
-3.8421 WOLFRAM -0.3010
-3.8421 WON'T -0.2597
-3.5411 WONDER -0.3008
-3.5411 WORD -0.2559
-3.0640 WORK -0.2563
-3.8421 WORLD -0.3006
-3.2400 WOULD -0.3003
-3.8421 WOW -0.3003
-3.8421 WRONG -0.2597
-3.5411 YEAR -0.2597
-3.3650 YEARS -0.2597
-3.1431 YES -0.2516
-3.3650 YORK -0.2594
-1.9390 YOU -0.2296
-3.8421 YOU'RE -0.3010
-2.8879 YOUR -0.3000
-3.5411 YOURSELF -0.2597
-3.8421 Z -0.2597
-3.8421 ZZ -0.3010

\2-grams:
-0.3010 9GAG FOR -0.2430
-3.1011 <s> A -0.2894
-3.1011 <s> ABORT 0.0000
-3.1011 <s> AC 0.0000
-2.8000 <s> ACTIVATE 0.0000
-3.1011 <s> ADOBE 0.0000
-3.1011 <s> ALEXANDER 0.0000
-3.1011 <s> AND -0.2688
-3.1011 <s> ANY 0.0000
-3.1011 <s> ARDUINO 0.0000
-2.6239 <s> ARE -0.1498
-2.8000 <s> ASK -0.1761
-1.8458 <s> AT -0.0177
-3.1011 <s> ATHENS 0.0000
-3.1011 <s> AZIZE 0.0000
-3.1011 <s> BB 0.0000
-2.6239 <s> BE -0.0969
-3.1011 <s> BEATSTEAKS 0.0000
-3.1011 <s> BENEDIKT 0.0000
-3.1011 <s> BERLIN 0.0000
-3.1011 <s> BEYONCE 0.0000
-2.8000 <s> BOB 0.0000
-3.1011 <s> BORING 0.0000
-3.1011 <s> BOSS 0.0000
-3.1011 <s> BOSSE 0.0000
-2.6239 <s> BRING 0.0000
-3.1011 <s> BRUNO 0.0000
-2.8000 <s> BYE 0.0000
-3.1011 <s> CALCULATOR 0.0000
-1.5959 <s> CAN -0.0669
-3.1011 <s> CANCEL 0.0000
-3.1011 <s> CARLA 0.0000
-2.3229 <s> CHANGE 0.0000
-3.1011 <s> CHECK -0.2218
-3.1011 <s> CHEF 0.0000
-3.1011 <s> CHICAGO 0.0000
-3.1011 <s> CHRISTIAN 0.0000
-3.1011 <s> CHRISTOPH 0.0000
-2.6239 <s> CLOSE 0.0000
-3.1011 <s> COLOGNE 0.0000
-3.1011 <s> COLON 0.0000
-3.1011 <s> COMMA 0.0000
-3.1011 <s> COOL -0.1761
-3.1011 <s> COULD -0.1761
-3.1011 <s> CREATE 0.0000
-2.8000 <s> CREO 0.0000
-3.1011 <s> CRO 0.0000
-3.1011 <s> CU 0.0000
-3.1011 <s> DAFT 0.0000
-3.1011 <s> DATE -0.1761
-3.1011 <s> DAY -0.2041
-3.1011 <s> DAYS 0.0000
-3.1011 <s> DEACTIVATE 0.0000
-3.1011 <s> DECREASE 0.0000
-3.1011 <s> DEICHKIND 0.0000
-3.1011 <s> DENNIS 0.0000
-3.1011 <s> DISABLE 0.0000
-2.1468 <s> DO -0.1614
-3.1011 <s> DONE 0.0000
-3.1011 <s> DUESSELDORF 0.0000
-3.1011 <s> DUISBURG 0.0000
-3.1011 <s> EIGHT -0.2688
-3.1011 <s> EIGHTEEN -0.1761
-3.1011 <s> EIGHTY 0.0000
-3.1011 <s> ELEVEN -0.2430
-3.1011 <s> ELKE 0.0000
-3.1011 <s> EMINEM 0.0000
-3.1011 <s> ENABLE 0.0000
-3.1011 <s> END 0.0000
-2.6239 <s> ENERGY -0.0969
-3.1011 <s> ENTER 0.0000
-3.1011 <s> ESSEN 0.0000
-3.1011 <s> EXIT 0.0000
-3.1011 <s> FACEBOOK -0.1249
-3.1011 <s> FIFTEEN -0.2430
-3.1011 <s> FIFTY -0.1761
-2.4021 <s> FIND -0.0669
-3.1011 <s> FIREFOX -0.1761
-3.1011 <s> FIVE -0.1996
-3.1011 <s> FLORIAN 0.0000
-2.8000 <s> FORTY -0.1249
-3.1011 <s> FOUR -0.1461
-3.1011 <s> FOURTEEN -0.1761
-3.1011 <s> FRANK 0.0000
-3.1011 <s> FRANKFURT 0.0000
-3.1011 <s> FROM -0.2430
-3.1011 <s> GET 0.0000
-2.6239 <s> GIVE 0.0000
-2.8000 <s> GO -0.1761
-2.6239 <s> GOOD -0.1249
-3.1011 <s> GOOD-BYE 0.0000
-3.1011 <s> GOODBYE 0.0000
-2.8000 <s> GOOGLE -0.1549
-3.1011 <s> GREECE 0.0000
-3.1011 <s> HAMBURG 0.0000
-3.1011 <s> HELLO 0.0000
-3.1011 <s> HENDRIX 0.0000
-3.1011 <s> HERE -0.1091
-2.8000 <s> HEY 0.0000
-3.1011 <s> HI 0.0000
-3.1011 <s> HIDE 0.0000
-2.1011 <s> HOW -0.0378
-2.6239 <s> HOW'S 0.0000
-2.0219 <s> I -0.2004
-3.1011 <s> I'D 0.0000
-2.3229 <s> I'M -0.0969
-3.1011 <s> ID 0.0000
-3.1011 <s> IGOR 0.0000
-3.1011 <s> IMAGEJ 0.0000
-1.5570 <s> IN -0.0600
-3.1011 <s> INCREASE 0.0000
-2.6239 <s> IS -0.2795
-3.1011 <s> ISABELLA 0.0000
-3.1011 <s> IT -0.2762
-3.1011 <s> IT'S -0.2218
-3.1011 <s> ITUNES 0.0000
-3.1011 <s> JAY 0.0000
-3.1011 <s> JENS 0.0000
-3.1011 <s> JESSICA 0.0000
-3.1011 <s> JESSY 0.0000
-3.1011 <s> JIMI 0.0000
-3.1011 <s> JOE 0.0000
-3.1011 <s> JOHANNES 0.0000
-3.1011 <s> JUSTIN 0.0000
-3.1011 <s> KATY 0.0000
-3.1011 <s> KINGS 0.0000
-3.1011 <s> KLAUS 0.0000
-3.1011 <s> KYUSS 0.0000
-2.8000 <s> LET'S -0.1249
-3.1011 <s> LINUX 0.0000
-3.1011 <s> LISTEN -0.1761
-2.1468 <s> LOAD 0.0000
-3.1011 <s> LOCATE 0.0000
-3.1011 <s> LONDON 0.0000
-3.1011 <s> LOOK 0.0000
-3.1011 <s> LOS 0.0000
-3.1011 <s> MAC 0.0000
-3.1011 <s> MADONNA 0.0000
-2.4990 <s> MAKE 0.0000
-3.1011 <s> MANUEL 0.0000
-3.1011 <s> MARVIN 0.0000
-3.1011 <s> MATHIAS 0.0000
-3.1011 <s> MATLAB -0.1761
-3.1011 <s> MEHDI 0.0000
-3.1011 <s> METALLICA 0.0000
-2.8000 <s> MICHAEL 0.0000
-2.6239 <s> MICROSOFT 0.0000
-3.1011 <s> MINUTE 0.0000
-3.1011 <s> MINUTES -0.0596
-3.1011 <s> MUNICH 0.0000
-2.8000 <s> MUSIC -0.2009
-2.3229 <s> MY -0.2109
-3.1011 <s> NEW -0.1461
-3.1011 <s> NEWS -0.1761
-3.1011 <s> NICE -0.2218
-3.1011 <s> NINE -0.2553
-3.1011 <s> NINETEEN -0.1761
-3.1011 <s> NINETY -0.1761
-3.1011 <s> NIRVANA 0.0000
-2.3229 <s> NO -0.0414
-3.1011 <s> NOTHING 0.0000
-3.1011 <s> NP 0.0000
-2.4021 <s> NUMBER 0.0000
-3.1011 <s> O'CLOCK -0.0263
-2.4990 <s> OK 0.0000
-2.8000 <s> ON -0.2798
-2.8000 <s> ONE -0.2218
-1.7586 <s> OPEN -0.0691
-3.1011 <s> PARIS -0.1761
-3.1011 <s> PHILIPP 0.0000
-3.1011 <s> PICTURES -0.2041
-2.4990 <s> PLAY -0.0580
-1.9871 <s> PLEASE -0.2234
-3.1011 <s> POINT 0.0000
-3.1011 <s> POWER -0.2553
-3.1011 <s> PRETTY 0.0000
-3.1011 <s> QUIET -0.1761
-3.1011 <s> QUIT 0.0000
-3.1011 <s> READ -0.2430
-2.8000 <s> RELOAD 0.0000
-2.3229 <s> REMIND 0.0000
-3.1011 <s> RIHANNA 0.0000
-3.1011 <s> RUN 0.0000
-3.1011 <s> SAN 0.0000
-2.6239 <s> SAVE 0.0000
-2.6239 <s> SAY 0.0000
-1.9250 <s> SEARCH -0.0223
-3.1011 <s> SECOND -0.0969
-3.1011 <s> SECONDS 0.0000
-2.8000 <s> SEE -0.1249
-3.1011 <s> SEND 0.0000
-1.9871 <s> SET 0.0000
-3.1011 <s> SETTINGS -0.1249
-3.1011 <s> SEVEN -0.2430
-3.1011 <s> SEVENTEEN -0.1761
-3.1011 <s> SEVENTY 0.0000
-3.1011 <s> SHAKIRA 0.0000
-1.8706 <s> SHOW 0.0000
-3.1011 <s> SHUTDOWN -0.1761
-3.1011 <s> SILENT -0.1761
-3.1011 <s> SIMON 0.0000
-3.1011 <s> SIX -0.2430
-3.1011 <s> SIXTEEN -0.1761
-3.1011 <s> SIXTY 0.0000
-3.1011 <s> SLAYER 0.0000
-3.1011 <s> SORRY 0.0000
-2.6239 <s> SPEAK -0.0580
-3.1011 <s> SPOTIFY -0.2218
-2.0597 <s> START -0.1427
-3.1011 <s> STEFAN 0.0000
-3.1011 <s> STING 0.0000
-2.3229 <s> STOP -0.0580
-2.3229 <s> SWITCH 0.0000
-3.1011 <s> TALK 0.0000
-2.8000 <s> TEACH -0.1249
-3.1011 <s> TEN -0.2688
-3.1011 <s> TEST 0.0000
-2.8000 <s> THANK 0.0000
-2.8000 <s> THANKS 0.0000
-3.1011 <s> THAT'S -0.2218
-1.9549 <s> THE -0.2572
-3.1011 <s> THEY 0.0000
-3.1011 <s> THIRTEEN -0.1761
-2.8000 <s> THIRTY -0.1761
-2.8000 <s> THIS -0.1963
-3.1011 <s> THOMAS 0.0000
-3.1011 <s> THREE -0.1919
-3.1011 <s> THX 0.0000
-3.1011 <s> TIME 0.0000
-3.1011 <s> TODAY -0.0378
-3.1011 <s> TOMMY 0.0000
-3.1011 <s> TOMORROW -0.1761
-3.1011 <s> TWELVE -0.2430
-2.3229 <s> TWENTY -0.0512
-3.1011 <s> TWO -0.2218
-2.6239 <s> UPDATE 0.0000
-3.1011 <s> USHER 0.0000
-3.1011 <s> UWE 0.0000
-3.1011 <s> WAKE -0.1761
-1.7788 <s> WHAT -0.0474
-2.4021 <s> WHAT'S -0.0669
-2.4021 <s> WHATS 0.0000
-2.1468 <s> WHEN 0.0000
-2.3229 <s> WHERE -0.0969
-2.1980 <s> WHO 0.0000
-2.6239 <s> WHY 0.0000
-3.1011 <s> WINDOWS 0.0000
-3.1011 <s> WOLFGANG 0.0000
-3.1011 <s> WOW 0.0000
-2.4021 <s> YES 0.0000
-2.4990 <s> YOU -0.2759
-3.1011 <s> YOU'RE 0.0000
-3.1011 <s> ZZ 0.0000
-1.8808 A BUS -0.1761
-1.8808 A FLIGHT 0.0000
-1.5798 A HEADLINE -0.1383
-1.8808 A LIST -0.2430
-1.8808 A LOCATION -0.0580
-1.5798 A NEW -0.2041
-1.5798 A NOTE 0.0000
-1.2788 A PROGRAM 0.0000
-1.5798 A QUESTION -0.0792
-1.8808 A QUOTE 0.0000
-1.5798 A REMINDER 0.0000
-1.8808 A RESTRICTED 0.0000
-1.8808 A SELF 0.0000
-1.8808 A SHORT 0.0000
-1.8808 A SPEAKER 0.0000
-1.8808 A TEST 0.0000
-1.1818 A TIMER 0.0000
-1.1818 A TRAIN -0.0669
-1.4037 A TV -0.2218
-1.8808 A WEB -0.2553
-0.3010 ABLE TO -0.2829
-0.3010 ABORT </s> -0.3010
-0.6021 ABOUT MY -0.2942
-0.6021 ABOUT YOURSELF 0.0000
-0.3010 AC DC 0.0000
-0.3010 ACCESS TO -0.2966
-0.6021 ACTIVATE ADVANCED 0.0000
-0.6021 ACTIVATE TEACH -0.1249
-0.3010 ADAPTION </s> -0.3010
-0.3010 ADOBE PDF 0.0000
-0.3010 ADVANCED SPEECH -0.1761
-0.3010 AFTER TOMORROW -0.1761
-0.3010 AGAIN </s> -0.3010
-0.3010 AGE </s> -0.3010
-0.6021 ALARM </s> -0.3010
-0.6021 ALARM IN -0.2544
-0.3010 ALEXANDER </s> -0.3010
-0.6990 ALL RUNNING -0.1249
-0.5229 ALL TIMERS -0.0669
-0.3010 ALPHA </s> -0.3010
-1.0792 AM </s> -0.3010
-0.6021 AM I -0.2780
-1.0792 AM IMPRESSED 0.0000
-1.0792 AM LOOKING 0.0000
-0.3010 AN ALARM 0.0000
-1.1461 AND GOODBYE 0.0000
-1.1461 AND INSTALL 0.0000
-1.1461 AND READ -0.2430
-1.1461 AND SEARCH -0.2894
-0.8451 AND START -0.2762
-1.1461 AND THEN -0.1761
-0.4771 ANGELES </s> -0.3010
-0.7782 ANGELES PLEASE -0.1289
-0.3010 ANNOYING </s> -0.3010
-0.3010 ANY NEWS -0.2852
-0.3010 ANYMORE </s> -0.3010
-0.3010 ANYTHING I -0.2858
-0.7782 APPS FOLDER 0.0000
-0.7782 APPS FOR -0.2872
-0.7782 APPS LIST -0.0969
-0.3010 ARDUINO </s> -0.3010
-1.5315 ARE FUNNY -0.1249
-1.5315 ARE NICE -0.2218
-1.5315 ARE THE -0.2988
-1.5315 ARE THERE -0.1761
-1.5315 ARE TOTALLY 0.0000
-1.0544 ARE WE -0.0969
-0.5772 ARE YOU -0.2553
-0.3010 AREA </s> -0.3010
-0.3010 ARTICLE </s> -0.3010
-0.3010 ARTISTS </s> -0.3010
-0.9031 ASK THAT -0.2596
-0.9031 ASK THIS -0.2688
-0.6021 ASK YOU -0.2672
-0.9823 AT EIGHT -0.1091
-1.3802 AT ELEVEN -0.1761
-1.6812 AT FIVE -0.2825
-1.6812 AT FOUR -0.2553
-1.6812 AT HOME -0.1091
-1.6812 AT MY -0.2802
-1.3802 AT NINE -0.1461
-1.6812 AT ONE -0.2863
-1.3802 AT SEVEN -0.1761
-1.3802 AT SIX -0.1761
-1.2041 AT TEN -0.1963
-1.6812 AT THREE -0.2762
-1.6812 AT TWELVE -0.2430
-1.6812 AT TWO -0.2825
-0.3010 ATHENS </s> -0.3010
-0.3010 AUDIO ENGINE 0.0000
-0.3010 AUSTRALIAN </s> -0.3010
-0.3010 AZIZE </s> -0.3010
-0.3010 BACK </s> -0.3010
-0.3010 BAND </s> -0.3010
-0.3010 BASIC SPEECH -0.1761
-0.3010 BB KING 0.0000
-0.9031 BE LOUD 0.0000
-0.9031 BE NICE -0.2218
-0.9031 BE QUIET -0.1761
-0.9031 BE SILENT -0.1761
-0.3010 BEATSTEAKS </s> -0.3010
-0.3010 BENEDIKT </s> -0.3010
-0.3010 BERLIN </s> -0.3010
-0.6021 BEST GUITAR 0.0000
-0.6021 BEST MATCH 0.0000
-0.3010 BEYONCE </s> -0.3010
-0.6021 BING </s> -0.3010
-0.6021 BING ME -0.2933
-0.3010 BIRTHDAY IN -0.2719
-0.3010 BLOG PLEASE -0.1289
-0.6021 BOB DYLAN 0.0000
-0.6021 BOB MARLEY 0.0000
-0.3010 BORING </s> -0.3010
-0.3010 BOSS </s> -0.3010
-0.3010 BOSSE </s> -0.3010
-0.3010 BRING ME -0.2527
-0.3010 BRITISH </s> -0.3010
-0.4771 BROWSER </s> -0.3010
-0.7782 BROWSER PLEASE -0.1289
-0.3010 BRUNO MARS 0.0000
-0.7782 BUNDESLIGA </s> -0.3010
-0.7782 BUNDESLIGA RESULTS 0.0000
-0.7782 BUNDESLIGA TODAY -0.0378
-0.6021 BUS </s> -0.3010
-0.6021 BUS COMING 0.0000
-0.4771 BYE </s> -0.3010
-0.7782 BYE BYE -0.1249
-0.3010 CALCULATOR </s> -0.3010
-0.3010 CALL ME -0.2972
-1.9243 CAN COUNT 0.0000
-1.9243 CAN DO -0.2553
-1.9243 CAN HELP -0.2218
-1.4472 CAN I -0.2780
-1.9243 CAN PLAY -0.2688
-1.9243 CAN SHUTDOWN -0.1761
-1.9243 CAN TELL 0.0000
-1.9243 CAN UNDERSTAND 0.0000
-0.4191 CAN YOU -0.1973
-0.3010 CANADIAN </s> -0.3010
-0.3010 CANCEL </s> -0.3010
-0.3010 CARLA </s> -0.3010
-0.3010 CATCH THE -0.2988
-0.3010 CATS </s> -0.3010
-0.3802 CHANGE LANGUAGE 0.0000
-1.0792 CHANGE VOICE 0.0000
-0.7782 CHECK INTERNET -0.2218
-0.4771 CHECK THE -0.2620
-0.3010 CHEF </s> -0.3010
-0.3010 CHICAGO </s> -0.3010
-0.3010 CHRISTIAN </s> -0.3010
-0.3010 CHRISTOPH </s> -0.3010
-0.3010 CHROME </s> -0.3010
-0.3010 CLEVER </s> -0.3010
-0.7782 CLOSE LAST -0.2218
-0.7782 CLOSE MOZILLA 0.0000
-0.7782 CLOSE THE -0.2988
-0.7782 CLOSEST HOSPITAL 0.0000
-0.7782 CLOSEST PHARMACY -0.1761
-0.7782 CLOSEST SUPERMARKET 0.0000
-0.3010 COLOGNE </s> -0.3010
-0.3010 COLON </s> -0.3010
-0.3010 COME BACK 0.0000
-0.3010 COMING </s> -0.3010
-0.3010 COMMA </s> -0.3010
-0.3010 COMMAND </s> -0.3010
-0.6021 COMMANDS PLEASE -0.1289
-0.6021 COMMANDS YOU -0.2872
-0.3010 COMPLETELY WRONG 0.0000
-0.6021 COMPUTER </s> -0.3010
-0.6021 COMPUTER IN -0.2846
-0.3010 CONNECTED TO -0.2829
-0.6021 CONNECTION </s> -0.3010
-0.6021 CONNECTION FROM -0.2730
-0.6021 COOL </s> -0.3010
-0.6021 COOL ISN'T 0.0000
-0.3010 CORRECT </s> -0.3010
-0.6021 COULD SHOW -0.1047
-0.6021 COULD YOU -0.2928
-0.3010 COUNT </s> -0.3010
-0.3010 CREATE A -0.2894
-0.3010 CREATED YOU -0.2730
-0.6021 CREO </s> -0.3010
-0.6021 CREO ELEMENTS 0.0000
-0.3010 CRO </s> -0.3010
-0.3010 CU </s> -0.3010
-0.3010 DAFT PUNK 0.0000
-0.3010 DATA </s> -0.3010
-0.6021 DATE </s> -0.3010
-0.6021 DATE TODAY -0.0378
-0.6990 DAY </s> -0.3010
-1.0000 DAY AFTER 0.0000
-1.0000 DAY IN -0.2719
-1.0000 DAY IS -0.2868
-0.3010 DAYS </s> -0.3010
-0.3010 DC </s> -0.3010
-0.3010 DEACTIVATE TEACH -0.1249
-0.3010 DECREASE VOLUME -0.1761
-0.3010 DEFAULT SPEECH -0.1761
-0.3010 DEFINITELY IT'S -0.2218
-0.3010 DEICHKIND </s> -0.3010
-0.3010 DENNIS </s> -0.3010
-0.6021 DIRECTIONS FROM -0.2730
-0.6021 DIRECTIONS TO -0.2829
-0.3010 DISABLE TEACH -0.1249
-0.3010 DISTANCE </s> -0.3010
-1.0000 DO </s> -0.3010
-1.6021 DO A -0.2953
-1.3010 DO I -0.2700
-1.3010 DO LIST -0.0969
-1.6021 DO WE -0.2430
-0.6021 DO YOU -0.2730
-0.6021 DOES IT -0.2762
-0.6021 DOES THAT -0.2808
-0.3010 DON'T WANT 0.0000
-0.3010 DONE </s> -0.3010
-0.3010 DRUGSTORE </s> -0.3010
-0.3010 DUESSELDORF </s> -0.3010
-0.3010 DUISBURG </s> -0.3010
-0.3010 DYLAN </s> -0.3010
-1.1461 EIGHT </s> -0.3010
-1.1461 EIGHT MINUTES -0.0596
-0.6690 EIGHT O'CLOCK 0.0000
-0.8451 EIGHT PM 0.0000
-0.6021 EIGHTEEN </s> -0.3010
-0.6021 EIGHTEEN MINUTES -0.0596
-0.3010 EIGHTY </s> -0.3010
-0.3010 ELEMENTS </s> -0.3010
-0.9031 ELEVEN </s> -0.3010
-0.9031 ELEVEN AM -0.2632
-0.9031 ELEVEN MINUTES -0.0596
-0.9031 ELEVEN O'CLOCK -0.0263
-0.3010 ELKE </s> -0.3010
-0.3010 EMAIL </s> -0.3010
-0.3010 EMINEM </s> -0.3010
-0.3010 ENABLE TEACH -0.1249
-0.3010 END </s> -0.3010
-0.9031 ENERGY </s> -0.3010
-0.6021 ENERGY SAVER 0.0000
-0.9031 ENERGY SAVING 0.0000
-0.3010 ENGINE </s> -0.3010
-0.6021 ENGLISH </s> -0.3010
-0.6021 ENGLISH PLEASE -0.1289
-0.3010 ENTER PERSONAL -0.2041
-0.3010 ESSEN </s> -0.3010
-0.3010 EVER </s> -0.3010
-0.6021 EXCEL </s> -0.3010
-0.6021 EXCEL AND -0.2341
-0.3010 EXIT </s> -0.3010
-0.3010 EXITING </s> -0.3010
-0.3010 EXPLORER </s> -0.3010
-0.4771 FACEBOOK </s> -0.3010
-1.0792 FACEBOOK PAGE -0.1761
-1.0792 FACEBOOK PLEASE -0.1289
-0.3010 FAMOUS ARTISTS 0.0000
-0.3010 FAST </s> -0.3010
-0.6021 FAVORITE BAND 0.0000
-0.6021 FAVORITE TV -0.2218
-0.6021 FEELING </s> -0.3010
-0.6021 FEELING GOOD -0.2632
-0.3010 FETCH THE -0.2988
-0.9031 FIFTEEN </s> -0.3010
-0.4260 FIFTEEN MINUTES -0.0367
-0.6021 FIFTY </s> -0.3010
-0.6021 FIFTY PERCENT 0.0000
-0.7782 FIND A -0.2653
-1.0792 FIND ME -0.2855
-1.0792 FIND MUSIC -0.2319
-1.0792 FIND PICTURES -0.1461
-1.0792 FIND THE -0.2988
-0.6021 FIREFOX </s> -0.3010
-0.6021 FIREFOX BROWSER -0.1249
-0.4771 FIRST </s> -0.3010
-0.7782 FIRST HEADLINE -0.1383
-0.6812 FIVE </s> -0.3010
-0.6021 FIVE MINUTES -0.0248
-1.3802 FIVE O'CLOCK -0.0263
-0.3010 FLIGHT </s> -0.3010
-0.3010 FLORIAN </s> -0.3010
-0.3010 FOLDER </s> -0.3010
-0.3010 FOOD STORE 0.0000
-1.8062 FOR </s> -0.3010
-1.2041 FOR A -0.2591
-1.8062 FOR FIFTEEN -0.0969
-1.8062 FOR FIVE -0.1761
-0.9031 FOR ME -0.2484
-1.8062 FOR MUSIC -0.2319
-1.8062 FOR TEN -0.1963
-1.3291 FOR THAT -0.2139
-1.5051 FOR THE -0.2899
-1.8062 FOR THIRTY -0.1761
-1.5051 FOR TOMORROW -0.1761
-1.5051 FOR UPDATES 0.0000
-1.2041 FOR US 0.0000
-1.8062 FOR VIDEOS 0.0000
-1.0792 FORTY </s> -0.3010
-0.6021 FORTY FIVE -0.0348
-0.7782 FORTY MINUTES -0.0596
-0.5229 FOUR </s> -0.3010
-1.0000 FOUR MINUTES -0.0596
-1.0000 FOUR O'CLOCK -0.0263
-0.6021 FOURTEEN </s> -0.3010
-0.6021 FOURTEEN MINUTES -0.0596
-0.4771 FRANCISCO </s> -0.3010
-0.7782 FRANCISCO TO -0.2966
-0.3010 FRANK </s> -0.3010
-0.3010 FRANKFURT </s> -0.3010
-1.2041 FROM </s> -0.3010
-0.7270 FROM HERE 0.0000
-0.9031 FROM MY -0.2730
-1.2041 FROM PARIS -0.1761
-1.2041 FROM SAN 0.0000
-0.3010 FULL POWER -0.1461
-0.4771 FUNNY </s> -0.3010
-0.7782 FUNNY SOMETIMES 0.0000
-0.3010 FUTURE HOLD 0.0000
-0.3010 GAME TODAY -0.2808
-0.3010 GEOLOCATION </s> -0.3010
-0.6690 GERMAN </s> -0.3010
-1.1461 GERMAN BUNDESLIGA -0.2218
-0.6690 GERMAN PLEASE -0.1289
-0.3010 GET DIRECTIONS 0.0000
-0.3010 GIVE ME -0.2816
-0.9031 GO </s> -0.3010
-0.9031 GO FROM -0.2109
-0.6021 GO TO -0.2921
-0.6021 GOING </s> -0.3010
-0.6021 GOING ON -0.2906
-0.3010 GONE </s> -0.3010
-0.7782 GOOD </s> -0.3010
-1.0792 GOOD BYE -0.1249
-1.0792 GOOD FOR -0.2730
-1.0792 GOOD MORNING 0.0000
-1.0792 GOOD THANK 0.0000
-0.3010 GOOD-BYE </s> -0.3010
-0.3010 GOODBYE </s> -0.3010
-0.8451 GOOGLE </s> -0.3010
-1.1461 GOOGLE CHROME 0.0000
-1.1461 GOOGLE FOR -0.2430
-1.1461 GOOGLE PLEASE -0.1289
-0.8451 GOOGLE THAT -0.1891
-0.4771 GRAMMAR MODE -0.1513
-0.7782 GRAMMAR RESTRICTIONS 0.0000
-0.3010 GREECE </s> -0.3010
-0.3010 GUITAR PLAYER -0.1761
-0.3010 HAMBURG </s> -0.3010
-0.3010 HAPPENING HERE -0.1091
-0.3010 HAPPENS THEN -0.1761
-0.6021 HAVE A -0.2894
-0.6021 HAVE ACCESS 0.0000
-0.5051 HEADLINE </s> -0.3010
-1.2041 HEADLINE ONE -0.2389
-1.2041 HEADLINE THREE -0.1919
-1.2041 HEADLINE TWO -0.2218
-1.0000 HEAR </s> -0.3010
-1.0000 HEAR ME -0.2484
-1.0000 HEAR MUSIC -0.2319
-0.6990 HEAR SOME -0.0726
-0.3010 HELL IS -0.2940
-0.3010 HELLO </s> -0.3010
-0.7782 HELP ME -0.2972
-0.7782 HELP WITH -0.1761
-0.7782 HELP YOU -0.2983
-0.3010 HENDRIX </s> -0.3010
-0.4472 HERE </s> -0.3010
-0.8451 HERE TO -0.2875
-0.6021 HEY </s> -0.3010
-0.6021 HEY GET 0.0000
-0.3010 HI </s> -0.3010
-0.3010 HIDE YOURSELF 0.0000
-0.3010 HOLD FOR -0.2730
-0.4472 HOME </s> -0.3010
-1.1461 HOME IT'S -0.2218
-1.1461 HOME PLEASE -0.1289
-0.3010 HOSPITAL QUICKLY 0.0000
-0.3010 HOUR </s> -0.3010
-0.3010 HOURS </s> -0.3010
-1.3424 HOW </s> -0.3010
-0.8653 HOW ARE -0.1675
-1.3424 HOW I -0.2858
-0.6435 HOW IS -0.1899
-1.3424 HOW OLD 0.0000
-0.3010 HOW'S THE -0.2644
-1.2863 I </s> -0.3010
-1.4624 I AM -0.2218
-1.4624 I ASK -0.1761
-1.4624 I CAN -0.2906
-1.7634 I COME 0.0000
-1.7634 I DON'T 0.0000
-1.7634 I HAVE -0.1761
-1.4624 I LEAVE 0.0000
-1.4624 I LIVE 0.0000
-1.7634 I NEED 0.0000
-1.7634 I REALLY -0.1761
-1.7634 I REPEAT 0.0000
-1.7634 I SAID 0.0000
-1.7634 I TEACH -0.2218
-1.7634 I WILL -0.1761
-1.7634 I WON'T 0.0000
-1.7634 I WONDER 0.0000
-1.4624 I WORK -0.0669
-1.2863 I WOULD -0.0969
-0.3010 I'D LIKE -0.1383
-1.2041 I'M BACK 0.0000
-1.2041 I'M FEELING -0.1761
-1.2041 I'M GONE 0.0000
-0.6021 I'M LOOKING 0.0000
-1.2041 I'M SEARCHING 0.0000
-0.3010 ID LIKE -0.1383
-0.3010 IF YOU -0.2844
-0.3010 IGOR </s> -0.3010
-0.3010 IMAGEJ </s> -0.3010
-0.3010 IMPRESSED </s> -0.3010
-2.0334 IN CHICAGO 0.0000
-2.0334 IN EIGHT -0.2688
-2.0334 IN EIGHTEEN -0.1761
-2.0334 IN ELEVEN -0.2430
-1.7324 IN FIFTEEN -0.0969
-2.0334 IN FIVE -0.1761
-1.4314 IN FORTY -0.0669
-2.0334 IN FOUR -0.2553
-2.0334 IN FOURTEEN -0.1761
-2.0334 IN LONDON 0.0000
-2.0334 IN LOS 0.0000
-2.0334 IN MUNICH 0.0000
-2.0334 IN NEW -0.1461
-2.0334 IN NINE -0.2553
-2.0334 IN NINETEEN -0.1761
-1.1883 IN ONE -0.1856
-2.0334 IN SAN 0.0000
-2.0334 IN SEVEN -0.2430
-2.0334 IN SEVENTEEN -0.1761
-2.0334 IN SIX -0.2430
-2.0334 IN SIXTEEN -0.1761
-1.7324 IN TEN -0.1963
-1.7324 IN THE -0.2944
-2.0334 IN THIRTEEN -0.1761
-1.5563 IN THIRTY -0.0669
-1.4314 IN THREE -0.1919
-1.7324 IN TWELVE -0.1761
-1.7324 IN TWENTY -0.2109
-1.1883 IN TWO -0.1513
-0.3010 INCREASE VOLUME -0.1761
-0.3010 INDIAN </s> -0.3010
-0.6021 INSIDE MY -0.2802
-0.6021 INSIDE YOUR -0.2218
-0.3010 INSTALL PROGRAMM 0.0000
-0.3010 INTERESTS </s> -0.3010
-0.7782 INTERNET </s> -0.3010
-0.7782 INTERNET CONNECTION -0.1761
-0.7782 INTERNET EXPLORER 0.0000
-1.7924 IS A -0.2953
-1.7924 IS BOSS 0.0000
-1.7924 IS CORRECT 0.0000
-1.7924 IS FLORIAN 0.0000
-1.7924 IS HAPPENING 0.0000
-1.4914 IS IT -0.1597
-1.7924 IS MY -0.2583
-1.4914 IS ON -0.1249
-1.4914 IS PLAYING 0.0000
-1.7924 IS REALLY -0.1761
-0.7132 IS THE -0.2449
-1.7924 IS THERE -0.1761
-1.4914 IS THIS -0.2341
-1.7924 IS WHAT -0.1871
-1.4914 IS YOUR -0.1597
-0.3010 ISABELLA </s> -0.3010
-0.3010 ISN'T IT -0.1919
-0.6532 IT </s> -0.3010
-1.2553 IT GOING -0.1761
-1.2553 IT MEAN 0.0000
-0.9542 IT ON -0.1549
-1.2553 IT WOULD -0.2430
-0.7782 IT'S A -0.2953
-0.7782 IT'S ANNOYING 0.0000
-0.7782 IT'S TRUE 0.0000
-0.3010 ITUNES </s> -0.3010
-0.3010 JACKSON </s> -0.3010
-0.3010 JAY Z 0.0000
-0.3010 JENS </s> -0.3010
-0.3010 JESSICA </s> -0.3010
-0.3010 JESSY </s> -0.3010
-0.3010 JIMI HENDRIX 0.0000
-0.3010 JOE </s> -0.3010
-0.3010 JOHANNES </s> -0.3010
-0.3010 JUSTIN TIMBERLAKE 0.0000
-0.3010 KATY PERRY 0.0000
-0.3010 KIDS IN -0.2719
-0.3010 KIND OF -0.2910
-0.3010 KING </s> -0.3010
-0.3010 KINGS OF -0.2910
-0.3010 KLAUS </s> -0.3010
-0.9542 KNOW ABOUT 0.0000
-1.2553 KNOW ARDUINO 0.0000
-1.2553 KNOW ME -0.2484
-1.2553 KNOW MY -0.2583
-1.2553 KNOW SOCCER -0.1761
-1.2553 KNOW WHAT'S -0.2632
-0.9542 KNOW WHERE -0.2430
-0.3010 KYUSS </s> -0.3010
-0.3010 LANGUAGE TO -0.2640
-0.4771 LAST </s> -0.3010
-0.7782 LAST PROCESS 0.0000
-0.3010 LATER </s> -0.3010
-0.6021 LATEST NEWS -0.2688
-0.6021 LATEST PHYSICS 0.0000
-0.3010 LEARNING </s> -0.3010
-0.3010 LEAVE </s> -0.3010
-0.3010 LEON </s> -0.3010
-0.7782 LET'S GO -0.2430
-0.7782 LET'S SEE -0.2218
-0.7782 LET'S WATCH -0.1249
-0.3010 LIFE </s> -0.3010
-0.3010 LIGHTS PLEASE -0.1289
-1.2041 LIKE IN -0.2970
-0.5051 LIKE TO -0.2640
-1.2041 LIKE TODAY -0.0378
-1.2041 LIKE TOMORROW -0.1761
-0.3010 LINUX </s> -0.3010
-0.4260 LIST </s> -0.3010
-0.9031 LIST OF -0.2910
-0.6021 LISTEN </s> -0.3010
-0.6021 LISTEN TO -0.2921
-0.3010 LISTENING </s> -0.3010
-0.3010 LIVE </s> -0.3010
-1.0000 LOAD A -0.2653
-0.6990 LOAD MY -0.2507
-0.6990 LOAD THE -0.2762
-0.3010 LOCATE ME -0.2484
-0.3680 LOCATION </s> -0.3010
-1.1461 LOCATION OF -0.2374
-0.3010 LONDON </s> -0.3010
-0.3010 LOOK FOR -0.2872
-0.3010 LOOKING FOR -0.2657
-0.3010 LOS ANGELES 0.0000
-0.3010 LOUD </s> -0.3010
-0.3010 MAC </s> -0.3010
-0.3010 MADE YOU -0.2730
-0.3010 MADONNA </s> -0.3010
-0.6021 MAKE A -0.2835
-0.9031 MAKE AND -0.2688
-0.9031 MAKE PROGRAMM 0.0000
-0.3010 MANUEL </s> -0.3010
-0.3010 MAPS </s> -0.3010
-0.3010 MARKET TODAY -0.0378
-0.3010 MARLEY </s> -0.3010
-0.3010 MARS </s> -0.3010
-0.3010 MARVIN </s> -0.3010
-0.3010 MATCH TO -0.2966
-0.3010 MATHIAS </s> -0.3010
-0.6021 MATLAB </s> -0.3010
-0.6021 MATLAB FOR -0.2430
-0.3010 MAY SPEAK -0.2688
-0.9430 ME </s> -0.3010
-1.4548 ME A -0.2264
-1.7559 ME HOME -0.0580
-1.7559 ME IN -0.2846
-1.5798 ME OF -0.2139
-2.0569 ME ONE -0.2711
-2.0569 ME OUR -0.1761
-2.0569 ME PLEASE -0.1289
-2.0569 ME SOME -0.2808
-0.8808 ME THE -0.2166
-1.0569 ME TO -0.2341
-2.0569 ME UP -0.1761
-1.7559 ME WHAT -0.1761
-2.0569 ME YOUR -0.2218
-0.3010 MEAN </s> -0.3010
-0.3010 MEANING OF -0.2910
-0.3010 MEETING TOMORROW -0.2109
-0.3010 MEHDI </s> -0.3010
-0.3010 MEMORY </s> -0.3010
-0.3010 METALLICA </s> -0.3010
-0.6021 MICHAEL </s> -0.3010
-0.6021 MICHAEL JACKSON 0.0000
-0.6021 MICROSOFT EXCEL 0.0000
-0.9031 MICROSOFT POWERPOINT -0.1761
-0.9031 MICROSOFT WORD -0.1761
-0.3010 MINUTE </s> -0.3010
-0.3701 MINUTES </s> -0.3010
-1.3554 MINUTES PLEASE -0.1289
-1.5315 MINUTES TO -0.2829
-0.6021 MODE </s> -0.3010
-0.9031 MODE OFF -0.1996
-1.0792 MODE ON -0.2798
-1.3802 MODE RIGHT -0.0969
-0.3010 MORNING </s> -0.3010
-0.3010 MOST DEFINITELY 0.0000
-0.3010 MOZILLA FIREFOX -0.1761
-0.3010 MUNICH </s> -0.3010
-0.7533 MUSIC </s> -0.3010
-0.9294 MUSIC FOR -0.2109
-0.8325 MUSIC OF -0.2016
-1.5315 MUSIC ONLINE 0.0000
-1.5315 MUSIC PLAYER -0.1761
-1.3291 MY APPS 0.0000
-1.5051 MY BLOG 0.0000
-1.8062 MY BROWSER -0.2218
-1.8062 MY FACEBOOK -0.2632
-1.5051 MY FAVORITE 0.0000
-1.5051 MY HOME -0.1091
-1.8062 MY INTERESTS 0.0000
-1.3291 MY LOCATION -0.0580
-1.0280 MY NAME -0.0414
-1.8062 MY NEWS -0.1761
-1.8062 MY PC -0.1761
-1.3291 MY PERSONAL -0.1461
-1.5051 MY PLACE 0.0000
-1.8062 MY TO -0.2829
-1.8062 MY TWITTER -0.2218
-1.5051 MY WORK 0.0000
-0.4559 NAME </s> -0.3010
-1.3010 NAME AGAIN 0.0000
-1.0000 NAME IS -0.2868
-0.3010 NAMES </s> -0.3010
-0.3010 NEAREST FOOD 0.0000
-0.3010 NEED HELP -0.2218
-1.0000 NEW COMMAND 0.0000
-1.0000 NEW VOICE 0.0000
-0.5229 NEW YORK 0.0000
-0.6021 NEWS </s> -0.3010
-1.1461 NEWS OF -0.2258
-1.4472 NEWS ON -0.2906
-0.9700 NEWS PLEASE -0.1289
-1.4472 NEWS TODAY -0.0378
-0.9031 NEXT BUS -0.1761
-0.9031 NEXT DRUGSTORE 0.0000
-0.9031 NEXT PHARMACY -0.1761
-0.9031 NEXT THING 0.0000
-0.7782 NICE </s> -0.3010
-0.7782 NICE IF 0.0000
-0.7782 NICE TO -0.2829
-1.0000 NINE </s> -0.3010
-1.0000 NINE MINUTES -0.0596
-0.6990 NINE O'CLOCK -0.0263
-1.0000 NINE PM 0.0000
-0.6021 NINETEEN </s> -0.3010
-0.6021 NINETEEN MINUTES -0.0596
-0.6021 NINETY </s> -0.3010
-0.6021 NINETY PERCENT 0.0000
-0.3010 NIRVANA </s> -0.3010
-1.0000 NO </s> -0.3010
-1.3010 NO I -0.2935
-0.6990 NO NO -0.1139
-1.3010 NO PROBLEM 0.0000
-1.3010 NO PROBLEMO 0.0000
-1.3010 NO THAT'S -0.2218
-0.3010 NOTE ON -0.1402
-0.3010 NOTHING </s> -0.3010
-0.3010 NOW </s> -0.3010
-0.3010 NP </s> -0.3010
-1.0000 NUMBER FIVE -0.1996
-1.0000 NUMBER FOUR -0.1461
-1.0000 NUMBER ONE -0.2389
-1.0000 NUMBER THREE -0.1919
-1.0000 NUMBER TWO -0.2218
-0.3291 O'CLOCK </s> -0.3010
-1.5051 O'CLOCK IN -0.2929
-1.6435 OF CATS 0.0000
-1.6435 OF DAFT 0.0000
-1.6435 OF FAMOUS 0.0000
-1.6435 OF JIMI 0.0000
-1.6435 OF KYUSS 0.0000
-1.6435 OF LEON 0.0000
-1.6435 OF LIFE 0.0000
-1.6435 OF MY -0.2872
-1.6435 OF NEW -0.1461
-1.6435 OF OUR -0.1761
-0.8653 OF THE -0.2831
-1.3424 OF THESE 0.0000
-1.6435 OF THIS -0.2688
-1.6435 OF TODAY -0.0378
-1.6435 OF YOU -0.2730
-1.6435 OF YOUR -0.2762
-0.6812 OFF </s> -0.3010
-1.3802 OFF MY -0.2942
-0.6021 OFF THE -0.2808
-0.9031 OK </s> -0.3010
-0.9031 OK BYE -0.2218
-0.9031 OK LET'S -0.2218
-0.9031 OK SOUNDS 0.0000
-0.3010 OLD ARE -0.1675
-1.3222 ON </s> -0.3010
-1.6232 ON CATS 0.0000
-1.6232 ON EXIT 0.0000
-1.6232 ON MY -0.2942
-1.6232 ON RIGHT -0.0969
-1.6232 ON START -0.2762
-0.5441 ON THE -0.2572
-1.3222 ON TV -0.2632
-0.8751 ONE </s> -0.3010
-1.4771 ONE DAY -0.2041
-1.0000 ONE HOUR 0.0000
-1.4771 ONE MINUTE 0.0000
-1.4771 ONE O'CLOCK -0.0263
-1.1761 ONE OF -0.2808
-1.4771 ONE QUESTION -0.0792
-1.1761 ONE YEAR 0.0000
-0.3010 ONLINE </s> -0.3010
-1.7634 OPEN 9GAG 0.0000
-1.2863 OPEN A -0.2653
-1.7634 OPEN BING -0.1761
-1.7634 OPEN CALCULATOR 0.0000
-1.7634 OPEN EMAIL 0.0000
-1.2863 OPEN FACEBOOK -0.1249
-1.2863 OPEN GOOGLE -0.1549
-1.2863 OPEN HEADLINE -0.2109
-1.7634 OPEN INTERNET -0.2218
-1.7634 OPEN MAPS 0.0000
-0.9183 OPEN MY -0.2352
-1.7634 OPEN SPOTIFY -0.2218
-1.7634 OPEN THE -0.2966
-1.7634 OPEN TWITTER -0.1249
-1.7634 OPEN WORD -0.1761
-0.6021 OUR LOCATION -0.0580
-0.6021 OUR MEETING 0.0000
-0.3010 OUT WHEN -0.2304
-0.3010 OVEN IN -0.2719
-0.6021 PAGE </s> -0.3010
-0.6021 PAGE PLEASE -0.1289
-0.6021 PARIS </s> -0.3010
-0.6021 PARIS TO -0.2966
-0.6021 PC </s> -0.3010
-0.6021 PC FOR -0.2430
-0.3010 PDF READER 0.0000
-0.3010 PERCENT </s> -0.3010
-0.3010 PERFORMANCE OF -0.2374
-0.3010 PERRY </s> -0.3010
-0.6990 PERSONAL DATA 0.0000
-0.5229 PERSONAL NEWS -0.1091
-0.6021 PHARMACY </s> -0.3010
-0.6021 PHARMACY AND -0.2341
-0.3010 PHILIPP </s> -0.3010
-0.3010 PHYSICS NEWS -0.1091
-0.6990 PICTURES </s> -0.3010
-0.5229 PICTURES OF -0.2704
-0.6021 PLACE </s> -0.3010
-0.6021 PLACE TO -0.2921
-1.1461 PLAY MUSIC -0.2167
-1.1461 PLAY ONE -0.2711
-0.4472 PLAY SOME -0.0726
-0.6021 PLAYER </s> -0.3010
-0.6021 PLAYER EVER 0.0000
-0.6021 PLAYING IN -0.2929
-0.6021 PLAYING SOCCER -0.1761
-0.4851 PLEASE </s> -0.3010
-2.0414 PLEASE CHECK -0.1249
-2.0414 PLEASE FOR -0.2872
-1.4393 PLEASE OPEN -0.2536
-2.0414 PLEASE PLAY -0.1091
-2.0414 PLEASE READ -0.2430
-1.2632 PLEASE REMIND 0.0000
-2.0414 PLEASE SHOW -0.1047
-1.7404 PLEASE START -0.2762
-1.7404 PLEASE SWITCH -0.1761
-0.3010 PM </s> -0.3010
-0.3010 POINT </s> -0.3010
-0.3010 POLICE </s> -0.3010
-0.5229 POWER </s> -0.3010
-1.0000 POWER SAVER 0.0000
-1.0000 POWER SAVING 0.0000
-0.6021 POWERPOINT </s> -0.3010
-0.6021 POWERPOINT FOR -0.2430
-0.3010 PRETTY COOL -0.1761
-0.3010 PROBLEM </s> -0.3010
-0.3010 PROBLEMO </s> -0.3010
-0.3010 PROCESS </s> -0.3010
-0.3010 PROGRAM </s> -0.3010
-0.3010 PROGRAMM </s> -0.3010
-0.3010 PROGRAMMED YOU -0.2730
-0.3010 PUNK </s> -0.3010
-0.3979 QUESTION </s> -0.3010
-1.0000 QUESTION IS -0.2940
-0.3010 QUICKLY </s> -0.3010
-0.6021 QUIET </s> -0.3010
-0.6021 QUIET PLEASE -0.1289
-0.3010 QUIT </s> -0.3010
-0.3010 QUOTE </s> -0.3010
-0.9031 READ ME -0.2398
-0.9031 READ MY -0.2802
-0.9031 READ THE -0.2988
-0.9031 READ THEM 0.0000
-0.3010 READER </s> -0.3010
-0.6021 REALLY GOOD -0.2632
-0.6021 REALLY WONDER 0.0000
-0.3010 RECOGNITION </s> -0.3010
-0.3010 RECORDING </s> -0.3010
-0.6021 RELOAD AUDIO 0.0000
-0.6021 RELOAD SOUND 0.0000
-0.3010 REMIND ME -0.2398
-0.6021 REMINDER FOR -0.2872
-0.6021 REMINDER PLEASE -0.2971
-0.3010 REPEAT </s> -0.3010
-0.3010 RESTRICTED AREA 0.0000
-0.3010 RESTRICTIONS </s> -0.3010
-0.3010 RESULTS </s> -0.3010
-0.9031 RIGHT </s> -0.3010
-0.4260 RIGHT NOW 0.0000
-0.3010 RIHANNA </s> -0.3010
-0.3010 ROLLING STONES 0.0000
-0.3010 ROOTS </s> -0.3010
-0.3010 RUN A -0.2953
-0.7782 RUNNING </s> -0.3010
-0.4771 RUNNING TIMERS -0.0669
-0.3010 SAID </s> -0.3010
-0.3010 SAN FRANCISCO 0.0000
-0.7782 SAVE ENERGY -0.2430
-0.7782 SAVE POWER -0.1461
-0.7782 SAVE SOME -0.2808
-0.3010 SAVER MODE -0.0348
-0.3010 SAVING OFF -0.1996
-0.4771 SAY SOMETHING -0.1761
-0.7782 SAY YOUR -0.1919
-0.9777 SEARCH FOR -0.2430
-1.5798 SEARCH INSIDE -0.1761
-1.2788 SEARCH IT -0.2499
-1.2788 SEARCH MUSIC -0.2167
-1.1027 SEARCH PICTURES 0.0000
-1.5798 SEARCH SOME -0.0726
-1.5798 SEARCH SPOTIFY -0.2218
-1.1027 SEARCH THAT -0.2139
-1.5798 SEARCH WIKI 0.0000
-1.5798 SEARCH WIKIPEDIA -0.1761
-0.3010 SEARCHING A -0.2715
-0.4260 SECOND </s> -0.3010
-0.9031 SECOND HEADLINE -0.1383
-0.3010 SECONDS </s> -0.3010
-0.7782 SEE HOW -0.2808
-0.7782 SEE WHAT -0.2840
-0.7782 SEE YOU -0.2983
-0.3010 SELF TEST 0.0000
-0.3010 SEND EMAIL 0.0000
-0.4260 SERIES </s> -0.3010
-0.9031 SERIES PLEASE -0.1289
-0.6690 SET A -0.2463
-1.1461 SET AN 0.0000
-1.4472 SET DEFAULT 0.0000
-1.4472 SET PERSONAL -0.2041
-1.4472 SET SPEECH -0.1761
-1.4472 SET VOICE 0.0000
-1.1461 SET VOLUME -0.1761
-0.4771 SETTINGS </s> -0.3010
-0.7782 SETTINGS PLEASE -0.1289
-0.9031 SEVEN </s> -0.3010
-0.9031 SEVEN MINUTES -0.0596
-0.9031 SEVEN O'CLOCK -0.0263
-0.9031 SEVEN PM 0.0000
-0.6021 SEVENTEEN </s> -0.3010
-0.6021 SEVENTEEN MINUTES -0.0596
-0.3010 SEVENTY </s> -0.3010
-0.3010 SHAKIRA </s> -0.3010
-0.3010 SHARE MARKET 0.0000
-0.3010 SHORT DISTANCE 0.0000
-1.3424 SHOW ALL 0.0000
-0.4393 SHOW ME -0.2126
-1.6435 SHOW MY -0.2802
-1.3424 SHOW THE -0.2548
-1.6435 SHOW TV -0.2218
-0.6021 SHUTDOWN THE -0.2988
-0.6021 SHUTDOWN WINDOWS 0.0000
-0.6021 SILENT </s> -0.3010
-0.6021 SILENT MODE -0.2430
-0.3010 SIMON </s> -0.3010
-0.9031 SIX </s> -0.3010
-0.9031 SIX MINUTES -0.0596
-0.9031 SIX O'CLOCK -0.0263
-0.9031 SIX PM 0.0000
-0.6021 SIXTEEN </s> -0.3010
-0.6021 SIXTEEN MINUTES -0.0596
-0.3010 SIXTY </s> -0.3010
-0.3010 SLAYER </s> -0.3010
-0.3010 SO FUNNY -0.2218
-0.6021 SOCCER RESULTS 0.0000
-0.6021 SOCCER TODAY -0.0378
-0.3882 SOME MUSIC -0.0483
-1.3424 SOME PHYSICS 0.0000
-1.3424 SOME POWER -0.1461
-0.6021 SOMETHING </s> -0.3010
-0.9031 SOMETHING CLEVER 0.0000
-0.9031 SOMETHING FUNNY -0.1249
-0.3010 SOMETIMES </s> -0.3010
-0.3010 SONGS </s> -0.3010
-0.3010 SORRY </s> -0.3010
-0.3010 SOUND ENGINE 0.0000
-0.3010 SOUNDS GOOD -0.2218
-1.1461 SPEAK AGAIN 0.0000
-0.8451 SPEAK ENGLISH 0.0000
-0.5441 SPEAK GERMAN -0.0580
-0.3010 SPEAKER ADAPTION 0.0000
-0.6021 SPEECH ENGINE 0.0000
-0.6021 SPEECH RECOGNITION 0.0000
-0.3010 SPORTS NEWS -0.1761
-0.7782 SPOTIFY </s> -0.3010
-0.7782 SPOTIFY AND -0.2688
-0.7782 SPOTIFY FOR -0.2942
-1.2553 START </s> -0.3010
-1.2553 START A -0.2591
-1.2553 START AN 0.0000
-1.5563 START AT -0.2919
-1.5563 START FACEBOOK -0.2632
-1.5563 START GOOGLE -0.2688
-1.5563 START IT -0.1919
-1.5563 START LEARNING 0.0000
-1.5563 START MATLAB -0.1761
-1.5563 START POWERPOINT -0.1761
-1.5563 START PROGRAM 0.0000
-1.5563 START RECORDING 0.0000
-1.5563 START SOME -0.0726
-1.5563 START TO -0.2966
-1.5563 START TWITTER -0.1249
-0.3010 STARTING </s> -0.3010
-0.3010 STEFAN </s> -0.3010
-0.3010 STING </s> -0.3010
-0.3010 STONES </s> -0.3010
-1.1461 STOP A -0.2715
-0.6690 STOP ALL 0.0000
-1.1461 STOP LEARNING 0.0000
-1.1461 STOP LISTENING 0.0000
-1.1461 STOP RECORDING 0.0000
-0.3010 STORE </s> -0.3010
-0.3010 STOVE </s> -0.3010
-0.3010 STRIPES </s> -0.3010
-0.3010 SUPERMARKET PLEASE -0.1289
-1.3802 SWITCH LANGUAGE 0.0000
-0.6021 SWITCH OFF -0.1513
-1.0792 SWITCH ON -0.1549
-0.9031 SWITCH TO -0.2783
-0.3010 TAKE THE -0.2988
-0.3010 TALK TO -0.2921
-0.4771 TEACH MODE -0.0348
-0.7782 TEACH YOU -0.2900
-0.3010 TELEVISION </s> -0.3010
-0.3010 TELL ME -0.2309
-1.1461 TEN </s> -0.3010
-0.6690 TEN MINUTES 0.0000
-1.1461 TEN O'CLOCK -0.0263
-0.8451 TEN PM 0.0000
-0.3010 TEST </s> -0.3010
-0.3010 THANK YOU -0.2701
-0.6021 THANKS </s> -0.3010
-0.6021 THANKS THAT'S -0.2218
-0.7404 THAT </s> -0.3010
-1.3424 THAT MEAN 0.0000
-1.0414 THAT ON -0.1549
-1.0414 THAT ONLINE 0.0000
-1.3424 THAT PLEASE -0.1289
-1.3424 THAT WAS 0.0000
-0.7782 THAT'S ANNOYING 0.0000
-0.7782 THAT'S COMPLETELY 0.0000
-0.7782 THAT'S VERY 0.0000
-1.9956 THE BEST 0.0000
-2.2967 THE BIRTHDAY 0.0000
-2.2967 THE BROWSER -0.1249
-1.9956 THE BUNDESLIGA -0.1249
-1.8195 THE CLOSEST 0.0000
-2.2967 THE COMMANDS -0.1761
-1.9956 THE COMPUTER 0.0000
-2.2967 THE DATE -0.1761
-2.2967 THE DAY -0.2553
-1.8195 THE FIRST 0.0000
-2.2967 THE FUTURE 0.0000
-2.2967 THE GAME 0.0000
-2.2967 THE GERMAN -0.2688
-1.9956 THE GRAMMAR 0.0000
-2.2967 THE HELL 0.0000
-2.2967 THE INTERNET -0.2218
-2.2967 THE KIDS 0.0000
-1.9956 THE LAST -0.1249
-1.9956 THE LATEST 0.0000
-1.9956 THE LIGHTS 0.0000
-2.2967 THE LOCATION -0.2688
-2.2967 THE MEANING 0.0000
-2.2967 THE MORNING 0.0000
-2.2967 THE NEAREST 0.0000
-1.6946 THE NEWS -0.1091
-1.6946 THE NEXT 0.0000
-2.2967 THE OVEN 0.0000
-2.2967 THE PC -0.1761
-2.2967 THE PERFORMANCE 0.0000
-2.2967 THE POLICE 0.0000
-1.9956 THE QUESTION 0.0000
-2.2967 THE ROLLING 0.0000
-2.2967 THE ROOTS 0.0000
-1.8195 THE SECOND 0.0000
-1.9956 THE SETTINGS 0.0000
-2.2967 THE SHARE 0.0000
-2.2967 THE SPORTS 0.0000
-1.9956 THE STOVE 0.0000
-2.2967 THE TELEVISION 0.0000
-1.8195 THE THIRD 0.0000
-1.9956 THE TIME 0.0000
-2.2967 THE TO -0.2829
-2.2967 THE TRAIN -0.2632
-2.2967 THE TRASH 0.0000
-1.5977 THE TV -0.1761
-1.9956 THE WAY 0.0000
-1.1206 THE WEATHER 0.0000
-1.6946 THE WEB -0.0792
-1.9956 THE WHITE 0.0000
-2.2967 THE WIKIPEDIA -0.1761
-2.2967 THE WORLD 0.0000
-0.3010 THEM PLEASE -0.1289
-0.6021 THEN </s> -0.3010
-0.6021 THEN CAN -0.0928
-0.6021 THERE ANYTHING 0.0000
-0.6021 THERE TIMERS -0.2632
-0.6021 THESE NAMES 0.0000
-0.6021 THESE SONGS 0.0000
-0.3010 THEY CALL 0.0000
-0.3010 THING YOU -0.2983
-0.4771 THIRD </s> -0.3010
-0.7782 THIRD HEADLINE -0.1383
-0.6021 THIRTEEN </s> -0.3010
-0.6021 THIRTEEN MINUTES -0.0596
-1.0792 THIRTY </s> -0.3010
-0.7782 THIRTY FIVE -0.0348
-0.6021 THIRTY MINUTES -0.0248
-1.1461 THIS A -0.2953
-1.1461 THIS DAY -0.2553
-0.6690 THIS IS -0.2795
-1.1461 THIS WHAT -0.2840
-1.1461 THIS WOLFRAM 0.0000
-0.3010 THOMAS </s> -0.3010
-0.6532 THREE </s> -0.3010
-1.2553 THREE DAYS 0.0000
-1.2553 THREE HOURS 0.0000
-1.2553 THREE MINUTES -0.0596
-1.2553 THREE O'CLOCK -0.0263
-1.2553 THREE YEARS 0.0000
-0.3010 THRESHOLD </s> -0.3010
-0.3010 THX </s> -0.3010
-0.3010 TIMBERLAKE </s> -0.3010
-0.3010 TIME </s> -0.3010
-0.3979 TIMER FOR -0.2730
-1.0000 TIMER PLEASE -0.1289
-0.7782 TIMERS </s> -0.3010
-0.6021 TIMERS PLEASE -0.1289
-1.0792 TIMERS RUNNING -0.2218
-1.9912 TO AUSTRALIAN 0.0000
-1.9912 TO BASIC 0.0000
-1.9912 TO BRITISH 0.0000
-1.9912 TO CANADIAN 0.0000
-1.9912 TO CATCH 0.0000
-1.9912 TO CHECK -0.1249
-1.3892 TO DO -0.2304
-1.6902 TO ENGLISH 0.0000
-1.9912 TO FETCH 0.0000
-1.9912 TO FIFTY -0.1761
-1.9912 TO FULL 0.0000
-1.6902 TO GERMAN -0.0580
-1.3892 TO HEAR -0.0792
-1.9912 TO HOME -0.2688
-1.9912 TO INDIAN 0.0000
-1.9912 TO LISTEN -0.1761
-1.9912 TO LONDON 0.0000
-1.9912 TO LOS 0.0000
-1.6902 TO ME -0.2484
-1.9912 TO MICROSOFT -0.1761
-1.9912 TO MY -0.2872
-1.9912 TO NINETY -0.1761
-1.9912 TO POWER -0.2553
-1.5141 TO SWITCH -0.1249
-1.9912 TO TAKE 0.0000
-1.6902 TO TEACH -0.2218
-1.3892 TO THE -0.2831
-1.9912 TO TURN -0.1761
-1.9912 TO WAKE -0.1761
-1.6902 TO WATCH 0.0000
-1.6902 TO WORK -0.0669
-1.9912 TO YOUR -0.2218
-0.3424 TODAY </s> -0.3010
-1.3424 TODAY AT -0.2533
-0.3010 TOMMY </s> -0.3010
-0.6021 TOMORROW </s> -0.3010
-0.7270 TOMORROW AT -0.1996
-1.2041 TOMORROW NINE -0.2041
-0.3010 TOP </s> -0.3010
-0.3010 TOTALLY RIGHT -0.2430
-0.7782 TRAIN </s> -0.3010
-1.0792 TRAIN CONNECTION -0.1761
-0.7782 TRAIN FROM -0.1383
-1.0792 TRAIN IN -0.2719
-0.3010 TRASH OUT 0.0000
-0.3010 TRUE </s> -0.3010
-0.6021 TURN OFF -0.1761
-0.6021 TURN ON -0.1549
-1.0792 TV </s> -0.3010
-1.3802 TV IN -0.2888
-0.7782 TV PROGRAM 0.0000
-1.3802 TV RIGHT -0.0969
-0.7782 TV SERIES 0.0000
-0.9031 TWELVE </s> -0.3010
-0.9031 TWELVE HOURS 0.0000
-0.9031 TWELVE MINUTES -0.0596
-0.9031 TWELVE O'CLOCK -0.0263
-1.2041 TWENTY </s> -0.3010
-0.9031 TWENTY FIVE -0.0348
-1.2041 TWENTY FOUR -0.1461
-1.2041 TWENTY MINUTES -0.0596
-1.2041 TWENTY ONE -0.2389
-1.2041 TWENTY THREE -0.1919
-1.2041 TWENTY TWO -0.2218
-0.7782 TWITTER PAGE -0.1761
-0.4771 TWITTER PLEASE -0.1289
-0.7782 TWO </s> -0.3010
-1.3802 TWO DAYS 0.0000
-0.9031 TWO HOURS 0.0000
-1.3802 TWO MINUTES -0.0596
-1.3802 TWO O'CLOCK -0.0263
-1.0792 TWO YEARS 0.0000
-0.3010 UNDERSTAND </s> -0.3010
-0.6021 UP AT -0.2533
-0.6021 UP TOMORROW -0.2109
-0.7782 UPDATE GEOLOCATION 0.0000
-0.7782 UPDATE LOCATION -0.0580
-0.7782 UPDATE MY -0.2802
-0.3010 UPDATES </s> -0.3010
-0.4260 US </s> -0.3010
-0.9031 US ISN'T 0.0000
-0.3010 USHER </s> -0.3010
-0.3010 USING GRAMMAR -0.1249
-0.3010 UWE </s> -0.3010
-0.3010 VERY KIND 0.0000
-0.3010 VIDEOS OF -0.2910
-0.3010 VOICE THRESHOLD 0.0000
-0.6021 VOLUME </s> -0.3010
-0.6021 VOLUME TO -0.2921
-0.6021 WAKE ME -0.2972
-0.6021 WAKE UP -0.1761
-0.3010 WANT TO -0.2736
-0.3010 WAS FAST 0.0000
-0.4771 WATCH A -0.2835
-0.7782 WATCH THE -0.2988
-0.6021 WAY FROM -0.2109
-0.6021 WAY HOME -0.1091
-0.9031 WE </s> -0.3010
-0.9031 WE GO -0.2430
-0.6021 WE HERE -0.1091
-0.8751 WEATHER </s> -0.3010
-1.4771 WEATHER FOR -0.2430
-0.7782 WEATHER IN -0.2804
-1.0000 WEATHER LIKE -0.2109
-1.4771 WEATHER TODAY -0.0378
-1.4771 WEATHER TOMORROW -0.1761
-0.3979 WEB </s> -0.3010
-1.0000 WEB SEARCH -0.2527
-1.4150 WHAT ARE -0.1498
-1.4150 WHAT CAN -0.0669
-1.7160 WHAT DAY -0.2553
-1.4150 WHAT DO -0.1761
-1.4150 WHAT DOES 0.0000
-1.7160 WHAT HAPPENS 0.0000
-0.6368 WHAT IS -0.1619
-1.7160 WHAT THE -0.2988
-1.7160 WHAT WILL -0.1761
-1.4150 WHAT YOU -0.2844
-1.0792 WHAT'S GOING -0.1761
-1.0792 WHAT'S INSIDE -0.1761
-0.7782 WHAT'S ON -0.1549
-0.7782 WHAT'S YOUR -0.1919
-1.0000 WHATS MY -0.2583
-0.6990 WHATS ON -0.1249
-0.6990 WHATS THE -0.2944
-1.3010 WHEN EXITING 0.0000
-0.8239 WHEN I -0.2780
-1.0000 WHEN I'M -0.2430
-1.3010 WHEN IS -0.2076
-1.3010 WHEN STARTING 0.0000
-1.0000 WHEN YOU -0.2928
-1.2041 WHERE AM -0.1761
-0.9031 WHERE ARE -0.1120
-0.7270 WHERE DO -0.2672
-0.9031 WHERE I -0.2700
-0.3010 WHITE STRIPES 0.0000
-0.9031 WHO AM -0.1761
-1.2041 WHO ARE -0.1675
-1.2041 WHO CREATED 0.0000
-0.9031 WHO IS -0.2868
-1.2041 WHO MADE 0.0000
-1.2041 WHO PROGRAMMED 0.0000
-0.7782 WHY </s> -0.3010
-0.4771 WHY ARE -0.2609
-0.3010 WIKI FOR -0.2802
-0.6021 WIKIPEDIA ARTICLE 0.0000
-0.6021 WIKIPEDIA FOR -0.2802
-0.6021 WILL </s> -0.3010
-0.6021 WILL THE -0.2988
-0.3010 WINDOWS </s> -0.3010
-0.6021 WITH </s> -0.3010
-0.6021 WITH THE -0.2966
-0.3010 WOLFGANG </s> -0.3010
-0.3010 WOLFRAM ALPHA 0.0000
-0.3010 WON'T </s> -0.3010
-0.3010 WONDER IF 0.0000
-0.6021 WORD </s> -0.3010
-0.6021 WORD PLEASE -0.1289
-0.3802 WORK </s> -0.3010
-1.0792 WORK TO -0.2966
-0.3010 WORLD AND -0.2688
-0.9031 WOULD BE -0.2430
-0.4260 WOULD LIKE -0.1383
-0.3010 WOW THAT -0.2808
-0.3010 WRONG </s> -0.3010
-0.3010 YEAR </s> -0.3010
-0.3010 YEARS </s> -0.3010
-1.0000 YES </s> -0.3010
-1.0000 YES I -0.2935
-1.0000 YES MOST 0.0000
-1.0000 YES THIS -0.1963
-1.0000 YES YOU -0.2928
-0.4771 YORK </s> -0.3010
-0.7782 YORK ONLINE 0.0000
-1.2041 YOU </s> -0.3010
-2.2041 YOU A -0.2894
-2.2041 YOU ABLE 0.0000
-2.2041 YOU AND -0.2688
-2.2041 YOU ANYMORE 0.0000
-1.7270 YOU ARE -0.2609
-2.2041 YOU BING -0.1761
-1.5051 YOU CAN -0.2744
-2.2041 YOU CONNECTED 0.0000
-2.2041 YOU COULD -0.1761
-2.2041 YOU DO -0.2553
-2.2041 YOU EXIT 0.0000
-2.2041 YOU FEELING -0.1761
-2.2041 YOU FIND -0.2632
-2.2041 YOU FROM -0.2730
-2.2041 YOU GOOGLE -0.2341
-2.2041 YOU HAVE -0.1761
-2.2041 YOU HEAR -0.2553
-2.2041 YOU HELP -0.2218
-1.2499 YOU KNOW 0.0000
-2.2041 YOU LATER 0.0000
-2.2041 YOU LOAD -0.2041
-2.2041 YOU MAY 0.0000
-2.2041 YOU MEAN 0.0000
-1.7270 YOU OPEN -0.2619
-2.2041 YOU PLAY -0.1091
-1.5051 YOU PLEASE -0.2419
-2.2041 YOU READ -0.2430
-2.2041 YOU REMIND 0.0000
-1.9031 YOU SEARCH -0.2126
-2.2041 YOU SET -0.1963
-1.7270 YOU SHOW -0.1047
-1.9031 YOU SOMETHING -0.1761
-1.7270 YOU SPEAK -0.0580
-1.9031 YOU START -0.2632
-2.2041 YOU STOP -0.2688
-2.2041 YOU SWITCH -0.1761
-1.9031 YOU TELL 0.0000
-2.2041 YOU TODAY -0.0378
-2.2041 YOU TURN -0.1761
-2.2041 YOU USING 0.0000
-2.2041 YOU WANT 0.0000
-2.2041 YOU WITH -0.1761
-0.3010 YOU'RE SO 0.0000
-1.2553 YOUR AGE 0.0000
-1.2553 YOUR COMMANDS -0.1761
-0.7782 YOUR MEMORY 0.0000
-0.6532 YOUR NAME -0.0792
-0.3010 YOURSELF </s> -0.3010
-0.3010 Z </s> -0.3010
-0.3010 ZZ TOP 0.0000

\3-grams:
-0.3010 9GAG FOR ME
-0.3010 <s> A QUESTION
-0.3010 <s> ABORT </s>
-0.3010 <s> AC DC
-0.6021 <s> ACTIVATE ADVANCED
-0.6021 <s> ACTIVATE TEACH
-0.3010 <s> ADOBE PDF
-0.3010 <s> ALEXANDER </s>
-0.3010 <s> AND THEN
-0.3010 <s> ANY NEWS
-0.3010 <s> ARDUINO </s>
-0.7782 <s> ARE THERE
-0.4771 <s> ARE YOU
-0.6021 <s> ASK THAT
-0.6021 <s> ASK THIS
-1.2553 <s> AT EIGHT
-1.5563 <s> AT ELEVEN
-1.5563 <s> AT FIVE
-1.5563 <s> AT FOUR
-1.5563 <s> AT HOME
-1.2553 <s> AT NINE
-1.5563 <s> AT ONE
-1.2553 <s> AT SEVEN
-1.2553 <s> AT SIX
-1.2553 <s> AT TEN
-1.5563 <s> AT THREE
-1.5563 <s> AT TWELVE
-1.5563 <s> AT TWO
-0.3010 <s> ATHENS </s>
-0.3010 <s> AZIZE </s>
-0.3010 <s> BB KING
-0.7782 <s> BE LOUD
-0.7782 <s> BE QUIET
-0.7782 <s> BE SILENT
-0.3010 <s> BEATSTEAKS </s>
-0.3010 <s> BENEDIKT </s>
-0.3010 <s> BERLIN </s>
-0.3010 <s> BEYONCE </s>
-0.6021 <s> BOB DYLAN
-0.6021 <s> BOB MARLEY
-0.3010 <s> BORING </s>
-0.3010 <s> BOSS </s>
-0.3010 <s> BOSSE </s>
-0.3010 <s> BRING ME
-0.3010 <s> BRUNO MARS
-0.6021 <s> BYE </s>
-0.6021 <s> BYE BYE
-0.3010 <s> CALCULATOR </s>
-1.5051 <s> CAN I
-0.3291 <s> CAN YOU
-0.3010 <s> CANCEL </s>
-0.3010 <s> CARLA </s>
-0.3802 <s> CHANGE LANGUAGE
-1.0792 <s> CHANGE VOICE
-0.3010 <s> CHECK INTERNET
-0.3010 <s> CHEF </s>
-0.3010 <s> CHICAGO </s>
-0.3010 <s> CHRISTIAN </s>
-0.3010 <s> CHRISTOPH </s>
-0.7782 <s> CLOSE LAST
-0.7782 <s> CLOSE MOZILLA
-0.7782 <s> CLOSE THE
-0.3010 <s> COLOGNE </s>
-0.3010 <s> COLON </s>
-0.3010 <s> COMMA </s>
-0.3010 <s> COOL </s>
-0.3010 <s> COULD YOU
-0.3010 <s> CREATE A
-0.6021 <s> CREO </s>
-0.6021 <s> CREO ELEMENTS
-0.3010 <s> CRO </s>
-0.3010 <s> CU </s>
-0.3010 <s> DAFT PUNK
-0.3010 <s> DATE </s>
-0.3010 <s> DAY </s>
-0.3010 <s> DAYS </s>
-0.3010 <s> DEACTIVATE TEACH
-0.3010 <s> DECREASE VOLUME
-0.3010 <s> DEICHKIND </s>
-0.3010 <s> DENNIS </s>
-0.3010 <s> DISABLE TEACH
-1.2553 <s> DO A
-0.3522 <s> DO YOU
-0.3010 <s> DONE </s>
-0.3010 <s> DUESSELDORF </s>
-0.3010 <s> DUISBURG </s>
-0.3010 <s> EIGHT </s>
-0.3010 <s> EIGHTEEN </s>
-0.3010 <s> EIGHTY </s>
-0.3010 <s> ELEVEN </s>
-0.3010 <s> ELKE </s>
-0.3010 <s> EMINEM </s>
-0.3010 <s> ENABLE TEACH
-0.3010 <s> END </s>
-0.4771 <s> ENERGY SAVER
-0.7782 <s> ENERGY SAVING
-0.3010 <s> ENTER PERSONAL
-0.3010 <s> ESSEN </s>
-0.3010 <s> EXIT </s>
-0.3010 <s> FACEBOOK </s>
-0.3010 <s> FIFTEEN </s>
-0.3010 <s> FIFTY </s>
-0.6990 <s> FIND A
-1.0000 <s> FIND ME
-1.0000 <s> FIND PICTURES
-1.0000 <s> FIND THE
-0.3010 <s> FIREFOX </s>
-0.3010 <s> FIVE </s>
-0.3010 <s> FLORIAN </s>
-0.6021 <s> FORTY </s>
-0.6021 <s> FORTY FIVE
-0.3010 <s> FOUR </s>
-0.3010 <s> FOURTEEN </s>
-0.3010 <s> FRANK </s>
-0.3010 <s> FRANKFURT </s>
-0.3010 <s> FROM MY
-0.3010 <s> GET DIRECTIONS
-0.3010 <s> GIVE ME
-0.3010 <s> GO TO
-0.7782 <s> GOOD </s>
-0.7782 <s> GOOD BYE
-0.7782 <s> GOOD MORNING
-0.3010 <s> GOOD-BYE </s>
-0.3010 <s> GOODBYE </s>
-0.6021 <s> GOOGLE </s>
-0.6021 <s> GOOGLE THAT
-0.3010 <s> GREECE </s>
-0.3010 <s> HAMBURG </s>
-0.3010 <s> HELLO </s>
-0.3010 <s> HENDRIX </s>
-0.3010 <s> HERE </s>
-0.6021 <s> HEY </s>
-0.6021 <s> HEY GET
-0.3010 <s> HI </s>
-0.3010 <s> HIDE YOURSELF
-1.3010 <s> HOW </s>
-0.8239 <s> HOW ARE
-0.6021 <s> HOW IS
-1.3010 <s> HOW OLD
-0.3010 <s> HOW'S THE
-1.0792 <s> I AM
-1.3802 <s> I DON'T
-1.3802 <s> I HAVE
-1.3802 <s> I NEED
-1.3802 <s> I REALLY
-1.3802 <s> I REPEAT
-1.3802 <s> I SAID
-1.3802 <s> I WONDER
-0.9031 <s> I WOULD
-0.3010 <s> I'D LIKE
-1.0792 <s> I'M FEELING
-0.4771 <s> I'M LOOKING
-1.0792 <s> I'M SEARCHING
-0.3010 <s> ID LIKE
-0.3010 <s> IGOR </s>
-0.3010 <s> IMAGEJ </s>
-1.8451 <s> IN EIGHT
-1.8451 <s> IN EIGHTEEN
-1.8451 <s> IN ELEVEN
-1.8451 <s> IN FIFTEEN
-1.8451 <s> IN FIVE
-1.5441 <s> IN FORTY
-1.8451 <s> IN FOUR
-1.8451 <s> IN FOURTEEN
-1.8451 <s> IN NINE
-1.8451 <s> IN NINETEEN
-1.2430 <s> IN ONE
-1.8451 <s> IN SEVEN
-1.8451 <s> IN SEVENTEEN
-1.8451 <s> IN SIX
-1.8451 <s> IN SIXTEEN
-1.8451 <s> IN TEN
-1.8451 <s> IN THIRTEEN
-1.5441 <s> IN THIRTY
-1.2430 <s> IN THREE
-1.5441 <s> IN TWELVE
-1.5441 <s> IN TWENTY
-1.2430 <s> IN TWO
-0.3010 <s> INCREASE VOLUME
-0.7782 <s> IS THERE
-0.4771 <s> IS THIS
-0.3010 <s> ISABELLA </s>
-0.3010 <s> IT WOULD
-0.3010 <s> IT'S ANNOYING
-0.3010 <s> ITUNES </s>
-0.3010 <s> JAY Z
-0.3010 <s> JENS </s>
-0.3010 <s> JESSICA </s>
-0.3010 <s> JESSY </s>
-0.3010 <s> JIMI HENDRIX
-0.3010 <s> JOE </s>
-0.3010 <s> JOHANNES </s>
-0.3010 <s> JUSTIN TIMBERLAKE
-0.3010 <s> KATY PERRY
-0.3010 <s> KINGS OF
-0.3010 <s> KLAUS </s>
-0.3010 <s> KYUSS </s>
-0.6021 <s> LET'S SEE
-0.6021 <s> LET'S WATCH
-0.3010 <s> LINUX </s>
-0.3010 <s> LISTEN TO
-0.9542 <s> LOAD A
-0.7782 <s> LOAD MY
-0.6532 <s> LOAD THE
-0.3010 <s> LOCATE ME
-0.3010 <s> LONDON </s>
-0.3010 <s> LOOK FOR
-0.3010 <s> LOS ANGELES
-0.3010 <s> MAC </s>
-0.3010 <s> MADONNA </s>
-0.6021 <s> MAKE A
-0.9031 <s> MAKE AND
-0.9031 <s> MAKE PROGRAMM
-0.3010 <s> MANUEL </s>
-0.3010 <s> MARVIN </s>
-0.3010 <s> MATHIAS </s>
-0.3010 <s> MATLAB </s>
-0.3010 <s> MEHDI </s>
-0.3010 <s> METALLICA </s>
-0.6021 <s> MICHAEL </s>
-0.6021 <s> MICHAEL JACKSON
-0.7782 <s> MICROSOFT EXCEL
-0.7782 <s> MICROSOFT POWERPOINT
-0.7782 <s> MICROSOFT WORD
-0.3010 <s> MINUTE </s>
-0.3010 <s> MINUTES </s>
-0.3010 <s> MUNICH </s>
-0.6021 <s> MUSIC </s>
-0.6021 <s> MUSIC PLAYER
-1.0792 <s> MY HOME
-0.6021 <s> MY NAME
-1.0792 <s> MY PLACE
-1.0792 <s> MY WORK
-0.3010 <s> NEW YORK
-0.3010 <s> NEWS </s>
-0.3010 <s> NICE TO
-0.3010 <s> NINE </s>
-0.3010 <s> NINETEEN </s>
-0.3010 <s> NINETY </s>
-0.3010 <s> NIRVANA </s>
-1.0792 <s> NO </s>
-1.0792 <s> NO I
-0.7782 <s> NO NO
-1.0792 <s> NO PROBLEM
-1.0792 <s> NO PROBLEMO
-0.3010 <s> NOTHING </s>
-0.3010 <s> NP </s>
-1.0000 <s> NUMBER FIVE
-1.0000 <s> NUMBER FOUR
-1.0000 <s> NUMBER ONE
-1.0000 <s> NUMBER THREE
-1.0000 <s> NUMBER TWO
-0.3010 <s> O'CLOCK </s>
-0.9031 <s> OK </s>
-0.9031 <s> OK BYE
-0.9031 <s> OK LET'S
-0.9031 <s> OK SOUNDS
-0.6021 <s> ON EXIT
-0.6021 <s> ON START
-0.6021 <s> ONE </s>
-0.6021 <s> ONE QUESTION
-1.6435 <s> OPEN 9GAG
-1.1663 <s> OPEN A
-1.6435 <s> OPEN BING
-1.6435 <s> OPEN CALCULATOR
-1.6435 <s> OPEN EMAIL
-1.6435 <s> OPEN GOOGLE
-1.1663 <s> OPEN HEADLINE
-1.6435 <s> OPEN INTERNET
-1.6435 <s> OPEN MAPS
-0.7984 <s> OPEN MY
-1.6435 <s> OPEN SPOTIFY
-1.6435 <s> OPEN THE
-0.3010 <s> PARIS </s>
-0.3010 <s> PHILIPP </s>
-0.3010 <s> PICTURES </s>
-0.9031 <s> PLAY MUSIC
-0.4260 <s> PLAY SOME
-1.4150 <s> PLEASE CHECK
-0.9379 <s> PLEASE OPEN
-1.4150 <s> PLEASE PLAY
-1.4150 <s> PLEASE READ
-0.8129 <s> PLEASE REMIND
-1.4150 <s> PLEASE SHOW
-1.4150 <s> PLEASE START
-1.4150 <s> PLEASE SWITCH
-0.3010 <s> POINT </s>
-0.3010 <s> POWER SAVING
-0.3010 <s> PRETTY COOL
-0.3010 <s> QUIET PLEASE
-0.3010 <s> QUIT </s>
-0.3010 <s> READ ME
-0.6021 <s> RELOAD AUDIO
-0.6021 <s> RELOAD SOUND
-0.3010 <s> REMIND ME
-0.3010 <s> RIHANNA </s>
-0.3010 <s> RUN A
-0.3010 <s> SAN FRANCISCO
-0.7782 <s> SAVE ENERGY
-0.7782 <s> SAVE POWER
-0.7782 <s> SAVE SOME
-0.4771 <s> SAY SOMETHING
-0.7782 <s> SAY YOUR
-1.1761 <s> SEARCH FOR
-1.4771 <s> SEARCH INSIDE
-1.1761 <s> SEARCH IT
-1.1761 <s> SEARCH MUSIC
-1.0000 <s> SEARCH PICTURES
-1.4771 <s> SEARCH SPOTIFY
-1.1761 <s> SEARCH THAT
-1.4771 <s> SEARCH WIKI
-1.4771 <s> SEARCH WIKIPEDIA
-0.3010 <s> SECOND </s>
-0.3010 <s> SECONDS </s>
-0.6021 <s> SEE HOW
-0.6021 <s> SEE YOU
-0.3010 <s> SEND EMAIL
-0.7160 <s> SET A
-1.1139 <s> SET AN
-1.4150 <s> SET DEFAULT
-1.4150 <s> SET PERSONAL
-1.4150 <s> SET SPEECH
-1.4150 <s> SET VOICE
-1.1139 <s> SET VOLUME
-0.3010 <s> SETTINGS </s>
-0.3010 <s> SEVEN </s>
-0.3010 <s> SEVENTEEN </s>
-0.3010 <s> SEVENTY </s>
-0.3010 <s> SHAKIRA </s>
-1.2304 <s> SHOW ALL
-0.4901 <s> SHOW ME
-1.5315 <s> SHOW MY
-1.2304 <s> SHOW THE
-1.5315 <s> SHOW TV
-0.3010 <s> SHUTDOWN WINDOWS
-0.3010 <s> SILENT MODE
-0.3010 <s> SIMON </s>
-0.3010 <s> SIX </s>
-0.3010 <s> SIXTEEN </s>
-0.3010 <s> SIXTY </s>
-0.3010 <s> SLAYER </s>
-0.3010 <s> SORRY </s>
-0.7782 <s> SPEAK ENGLISH
-0.4771 <s> SPEAK GERMAN
-0.3010 <s> SPOTIFY </s>
-1.0414 <s> START A
-1.0414 <s> START AN
-1.3424 <s> START FACEBOOK
-1.3424 <s> START GOOGLE
-1.3424 <s> START LEARNING
-1.3424 <s> START PROGRAM
-1.3424 <s> START RECORDING
-1.3424 <s> START TO
-1.3424 <s> START TWITTER
-0.3010 <s> STEFAN </s>
-0.3010 <s> STING </s>
-0.6021 <s> STOP ALL
-1.0792 <s> STOP LEARNING
-1.0792 <s> STOP LISTENING
-1.0792 <s> STOP RECORDING
-1.0792 <s> SWITCH LANGUAGE
-1.0792 <s> SWITCH OFF
-1.0792 <s> SWITCH ON
-0.6021 <s> SWITCH TO
-0.3010 <s> TALK TO
-0.3010 <s> TEACH MODE
-0.3010 <s> TEN </s>
-0.3010 <s> TEST </s>
-0.3010 <s> THANK YOU
-0.6021 <s> THANKS </s>
-0.6021 <s> THANKS THAT'S
-0.3010 <s> THAT'S ANNOYING
-1.4472 <s> THE DAY
-1.1461 <s> THE FIRST
-1.1461 <s> THE LAST
-1.4472 <s> THE POLICE
-1.4472 <s> THE QUESTION
-1.4472 <s> THE ROLLING
-1.4472 <s> THE ROOTS
-1.1461 <s> THE SECOND
-1.1461 <s> THE THIRD
-1.4472 <s> THE WHITE
-0.3010 <s> THEY CALL
-0.3010 <s> THIRTEEN </s>
-0.6021 <s> THIRTY </s>
-0.6021 <s> THIRTY FIVE
-0.3010 <s> THIS IS
-0.3010 <s> THOMAS </s>
-0.3010 <s> THREE </s>
-0.3010 <s> THX </s>
-0.3010 <s> TIME </s>
-0.3010 <s> TODAY </s>
-0.3010 <s> TOMMY </s>
-0.3010 <s> TOMORROW </s>
-0.3010 <s> TWELVE </s>
-1.0792 <s> TWENTY </s>
-1.0792 <s> TWENTY FIVE
-1.0792 <s> TWENTY FOUR
-1.0792 <s> TWENTY ONE
-1.0792 <s> TWENTY THREE
-1.0792 <s> TWENTY TWO
-0.3010 <s> TWO </s>
-0.7782 <s> UPDATE GEOLOCATION
-0.7782 <s> UPDATE LOCATION
-0.7782 <s> UPDATE MY
-0.3010 <s> USHER </s>
-0.3010 <s> UWE </s>
-0.3010 <s> WAKE ME
-1.3222 <s> WHAT ARE
-1.3222 <s> WHAT CAN
-1.6232 <s> WHAT DAY
-1.3222 <s> WHAT DO
-1.3222 <s> WHAT DOES
-0.6232 <s> WHAT IS
-1.6232 <s> WHAT THE
-1.6232 <s> WHAT WILL
-1.0000 <s> WHAT'S GOING
-0.6990 <s> WHAT'S ON
-0.6990 <s> WHAT'S YOUR
-1.0000 <s> WHATS MY
-0.6990 <s> WHATS ON
-0.6990 <s> WHATS THE
-1.2553 <s> WHEN EXITING
-0.9542 <s> WHEN I
-0.9542 <s> WHEN I'M
-1.2553 <s> WHEN IS
-1.2553 <s> WHEN STARTING
-0.9542 <s> WHEN YOU
-1.0792 <s> WHERE AM
-0.7782 <s> WHERE ARE
-0.6021 <s> WHERE DO
-0.9031 <s> WHO AM
-1.2041 <s> WHO ARE
-1.2041 <s> WHO CREATED
-0.9031 <s> WHO IS
-1.2041 <s> WHO MADE
-1.2041 <s> WHO PROGRAMMED
-0.7782 <s> WHY </s>
-0.4771 <s> WHY ARE
-0.3010 <s> WINDOWS </s>
-0.3010 <s> WOLFGANG </s>
-0.3010 <s> WOW THAT
-1.0000 <s> YES </s>
-1.0000 <s> YES I
-1.0000 <s> YES MOST
-1.0000 <s> YES THIS
-1.0000 <s> YES YOU
-0.6021 <s> YOU ARE
-0.9031 <s> YOU CAN
-0.9031 <s> YOU MAY
-0.3010 <s> YOU'RE SO
-0.3010 <s> ZZ TOP
-0.3010 A BUS </s>
-0.3010 A FLIGHT </s>
-0.3010 A HEADLINE </s>
-0.3010 A LIST OF
-0.3010 A LOCATION </s>
-0.6021 A NEW COMMAND
-0.6021 A NEW VOICE
-0.3010 A NOTE ON
-0.3010 A PROGRAM </s>
-0.3010 A QUESTION </s>
-0.3010 A QUOTE </s>
-0.6021 A REMINDER FOR
-0.6021 A REMINDER PLEASE
-0.3010 A RESTRICTED AREA
-0.3010 A SELF TEST
-0.3010 A SHORT DISTANCE
-0.3010 A SPEAKER ADAPTION
-0.3010 A TEST </s>
-0.3979 A TIMER FOR
-1.0000 A TIMER PLEASE
-0.6990 A TRAIN </s>
-1.0000 A TRAIN CONNECTION
-0.6990 A TRAIN FROM
-0.3010 A TV SERIES
-0.3010 A WEB SEARCH
-0.3010 ABLE TO DO
-0.3010 ABOUT MY INTERESTS
-0.3010 ABOUT YOURSELF </s>
-0.3010 AC DC </s>
-0.3010 ACCESS TO YOUR
-0.3010 ACTIVATE ADVANCED SPEECH
-0.3010 ACTIVATE TEACH MODE
-0.3010 ADOBE PDF READER
-0.3010 ADVANCED SPEECH RECOGNITION
-0.3010 AFTER TOMORROW </s>
-0.6021 ALARM IN FORTY
-0.6021 ALARM IN ONE
-0.3010 ALL RUNNING TIMERS
-0.7782 ALL TIMERS </s>
-0.4771 ALL TIMERS PLEASE
-0.3010 AM I </s>
-0.3010 AM IMPRESSED </s>
-0.3010 AM LOOKING FOR
-0.6021 AN ALARM </s>
-0.6021 AN ALARM IN
-0.3010 AND GOODBYE </s>
-0.3010 AND INSTALL PROGRAMM
-0.3010 AND READ THEM
-0.3010 AND SEARCH SOME
-0.6021 AND START AT
-0.6021 AND START IT
-0.3010 AND THEN CAN
-0.3010 ANGELES PLEASE </s>
-0.3010 ANY NEWS ON
-0.3010 ANYTHING I CAN
-0.3010 APPS FOLDER </s>
-0.3010 APPS FOR THE
-0.3010 APPS LIST </s>
-0.3010 ARE FUNNY </s>
-0.3010 ARE NICE </s>
-0.3010 ARE THE COMMANDS
-0.3010 ARE THERE TIMERS
-0.3010 ARE TOTALLY RIGHT
-0.7782 ARE WE </s>
-0.4771 ARE WE HERE
-0.7782 ARE YOU </s>
-1.2553 ARE YOU ABLE
-1.2553 ARE YOU CONNECTED
-1.2553 ARE YOU FEELING
-1.2553 ARE YOU FROM
-1.2553 ARE YOU TODAY
-1.2553 ARE YOU USING
-0.3010 ASK THAT ONLINE
-0.3010 ASK THIS WOLFRAM
-0.6021 ASK YOU </s>
-0.6021 ASK YOU SOMETHING
-0.5229 AT EIGHT O'CLOCK
-0.6990 AT EIGHT PM
-0.6021 AT ELEVEN AM
-0.6021 AT ELEVEN O'CLOCK
-0.3010 AT FIVE O'CLOCK
-0.3010 AT FOUR O'CLOCK
-0.3010 AT HOME </s>
-0.3010 AT MY LOCATION
-0.6021 AT NINE O'CLOCK
-0.6021 AT NINE PM
-0.3010 AT ONE O'CLOCK
-0.6021 AT SEVEN O'CLOCK
-0.6021 AT SEVEN PM
-0.6021 AT SIX O'CLOCK
-0.6021 AT SIX PM
-0.7782 AT TEN O'CLOCK
-0.4771 AT TEN PM
-0.3010 AT THREE O'CLOCK
-0.3010 AT TWELVE O'CLOCK
-0.3010 AT TWO O'CLOCK
-0.3010 AUDIO ENGINE </s>
-0.3010 BASIC SPEECH RECOGNITION
-0.3010 BB KING </s>
-0.3010 BE LOUD </s>
-0.3010 BE NICE IF
-0.3010 BE QUIET </s>
-0.3010 BE SILENT </s>
-0.3010 BEST GUITAR PLAYER
-0.3010 BEST MATCH TO
-0.3010 BING ME HOME
-0.3010 BIRTHDAY IN ONE
-0.3010 BLOG PLEASE </s>
-0.3010 BOB DYLAN </s>
-0.3010 BOB MARLEY </s>
-0.7782 BRING ME HOME
-0.4771 BRING ME TO
-0.3010 BROWSER PLEASE </s>
-0.3010 BRUNO MARS </s>
-0.3010 BUNDESLIGA RESULTS </s>
-0.3010 BUNDESLIGA TODAY </s>
-0.3010 BUS COMING </s>
-0.3010 BYE BYE </s>
-0.3010 CALL ME ONE
-0.3010 CAN COUNT </s>
-0.3010 CAN DO </s>
-0.3010 CAN HELP YOU
-0.4771 CAN I ASK
-0.7782 CAN I TEACH
-0.3010 CAN PLAY ONE
-0.3010 CAN SHUTDOWN THE
-0.3010 CAN TELL ME
-0.3010 CAN UNDERSTAND </s>
-1.8062 CAN YOU BING
-1.8062 CAN YOU DO
-1.8062 CAN YOU FIND
-1.8062 CAN YOU GOOGLE
-1.8062 CAN YOU HEAR
-1.8062 CAN YOU HELP
-1.8062 CAN YOU LOAD
-1.5051 CAN YOU OPEN
-1.8062 CAN YOU PLAY
-1.1072 CAN YOU PLEASE
-1.8062 CAN YOU READ
-1.8062 CAN YOU REMIND
-1.5051 CAN YOU SEARCH
-1.8062 CAN YOU SET
-1.3291 CAN YOU SHOW
-1.3291 CAN YOU SPEAK
-1.8062 CAN YOU START
-1.8062 CAN YOU STOP
-1.8062 CAN YOU SWITCH
-1.5051 CAN YOU TELL
-1.8062 CAN YOU TURN
-0.3010 CATCH THE TRAIN
-0.3010 CHANGE LANGUAGE TO
-0.3010 CHANGE VOICE THRESHOLD
-0.3010 CHECK INTERNET CONNECTION
-0.6021 CHECK THE STOVE
-0.6021 CHECK THE WEATHER
-0.3010 CLOSE LAST PROCESS
-0.3010 CLOSE MOZILLA FIREFOX
-0.3010 CLOSE THE BROWSER
-0.3010 CLOSEST HOSPITAL QUICKLY
-0.3010 CLOSEST PHARMACY AND
-0.3010 CLOSEST SUPERMARKET PLEASE
-0.3010 COME BACK </s>
-0.3010 COMMANDS PLEASE </s>
-0.3010 COMMANDS YOU CAN
-0.3010 COMPLETELY WRONG </s>
-0.3010 COMPUTER IN FORTY
-0.3010 CONNECTED TO THE
-0.3010 CONNECTION FROM PARIS
-0.3010 COOL ISN'T IT
-0.3010 COULD SHOW ME
-0.3010 COULD YOU OPEN
-0.3010 CREATE A NOTE
-0.3010 CREATED YOU </s>
-0.3010 CREO ELEMENTS </s>
-0.3010 DAFT PUNK </s>
-0.3010 DATE TODAY </s>
-0.3010 DAY AFTER TOMORROW
-0.3010 DAY IN TWO
-0.3010 DAY IS IT
-0.3010 DEACTIVATE TEACH MODE
-0.3010 DECREASE VOLUME </s>
-0.3010 DEFAULT SPEECH ENGINE
-0.3010 DEFINITELY IT'S TRUE
-0.3010 DIRECTIONS FROM SAN
-0.3010 DIRECTIONS TO THE
-0.3010 DISABLE TEACH MODE
-0.3010 DO A SPEAKER
-0.6021 DO I LIVE
-0.6021 DO I WORK
-0.3010 DO LIST </s>
-0.3010 DO WE GO
-1.3010 DO YOU HAVE
-0.3468 DO YOU KNOW
-0.3010 DOES IT MEAN
-0.3010 DOES THAT MEAN
-0.3010 DON'T WANT TO
-0.3010 EIGHT MINUTES </s>
-0.4771 EIGHT O'CLOCK </s>
-0.7782 EIGHT O'CLOCK IN
-0.3010 EIGHT PM </s>
-0.3010 EIGHTEEN MINUTES </s>
-0.3010 ELEVEN AM </s>
-0.3010 ELEVEN MINUTES </s>
-0.3010 ELEVEN O'CLOCK </s>
-0.3010 ENABLE TEACH MODE
-0.3010 ENERGY SAVER MODE
-0.3010 ENERGY SAVING OFF
-0.3010 ENGLISH PLEASE </s>
-0.3010 ENTER PERSONAL DATA
-0.3010 EXCEL AND START
-0.3010 FACEBOOK PAGE </s>
-0.3010 FACEBOOK PLEASE </s>
-0.3010 FAMOUS ARTISTS </s>
-0.3010 FAVORITE BAND </s>
-0.3010 FAVORITE TV SERIES
-0.3010 FEELING GOOD THANK
-0.3010 FETCH THE KIDS
-0.4771 FIFTEEN MINUTES </s>
-0.7782 FIFTEEN MINUTES TO
-0.3010 FIFTY PERCENT </s>
-0.6021 FIND A LOCATION
-0.6021 FIND A TRAIN
-0.3010 FIND ME A
-0.3010 FIND MUSIC OF
-0.3010 FIND PICTURES OF
-0.3010 FIND THE WIKIPEDIA
-0.3010 FIREFOX BROWSER </s>
-0.3010 FIRST HEADLINE </s>
-0.3802 FIVE MINUTES </s>
-1.0792 FIVE MINUTES PLEASE
-0.3010 FIVE O'CLOCK </s>
-0.3010 FOOD STORE </s>
-0.9031 FOR A BUS
-0.9031 FOR A FLIGHT
-0.6021 FOR A TRAIN
-0.3010 FOR FIFTEEN MINUTES
-0.3010 FOR FIVE MINUTES
-0.3010 FOR ME </s>
-0.3010 FOR MUSIC OF
-0.3010 FOR TEN MINUTES
-0.3010 FOR THAT </s>
-0.6021 FOR THE BEST
-0.6021 FOR THE CLOSEST
-0.3010 FOR THIRTY MINUTES
-0.6021 FOR TOMORROW AT
-0.6021 FOR TOMORROW NINE
-0.3010 FOR UPDATES </s>
-0.4260 FOR US </s>
-0.9031 FOR US ISN'T
-0.3010 FOR VIDEOS OF
-0.7782 FORTY FIVE </s>
-0.4771 FORTY FIVE MINUTES
-0.3010 FORTY MINUTES </s>
-0.3010 FOUR MINUTES </s>
-0.3010 FOUR O'CLOCK </s>
-0.3010 FOURTEEN MINUTES </s>
-0.3010 FRANCISCO TO LOS
-0.7782 FROM HERE </s>
-0.4771 FROM HERE TO
-0.6021 FROM MY PLACE
-0.6021 FROM MY WORK
-0.3010 FROM PARIS TO
-0.3010 FROM SAN FRANCISCO
-0.3010 FULL POWER </s>
-0.3010 FUNNY SOMETIMES </s>
-0.3010 FUTURE HOLD FOR
-0.3010 GAME TODAY AT
-0.3010 GERMAN BUNDESLIGA </s>
-0.3010 GERMAN PLEASE </s>
-0.6021 GET DIRECTIONS FROM
-0.6021 GET DIRECTIONS TO
-0.4771 GIVE ME A
-0.7782 GIVE ME SOME
-0.3010 GO FROM HERE
-0.6021 GO TO FULL
-0.6021 GO TO POWER
-0.3010 GOING ON RIGHT
-0.3010 GOOD BYE </s>
-0.3010 GOOD FOR US
-0.3010 GOOD MORNING </s>
-0.3010 GOOD THANK YOU
-0.3010 GOOGLE CHROME </s>
-0.3010 GOOGLE FOR ME
-0.3010 GOOGLE PLEASE </s>
-0.6021 GOOGLE THAT </s>
-0.6021 GOOGLE THAT PLEASE
-0.6021 GRAMMAR MODE </s>
-0.6021 GRAMMAR MODE RIGHT
-0.3010 GRAMMAR RESTRICTIONS </s>
-0.3010 GUITAR PLAYER EVER
-0.3010 HAPPENING HERE </s>
-0.3010 HAPPENS THEN </s>
-0.3010 HAVE A QUESTION
-0.3010 HAVE ACCESS TO
-0.3010 HEADLINE ONE </s>
-0.3010 HEADLINE THREE </s>
-0.3010 HEADLINE TWO </s>
-0.3010 HEAR ME </s>
-0.3010 HEAR MUSIC OF
-0.3010 HEAR SOME MUSIC
-0.3010 HELL IS HAPPENING
-0.3010 HELP ME PLEASE
-0.3010 HELP WITH THE
-0.3010 HELP YOU WITH
-0.6021 HERE TO MY
-0.6021 HERE TO WORK
-0.3010 HEY GET DIRECTIONS
-0.3010 HIDE YOURSELF </s>
-0.3010 HOLD FOR US
-0.3010 HOME IT'S A
-0.3010 HOME PLEASE </s>
-0.3010 HOSPITAL QUICKLY </s>
-0.3010 HOW ARE YOU
-0.3010 HOW I CAN
-1.0000 HOW IS IT
-0.3979 HOW IS THE
-0.3010 HOW OLD ARE
-0.7782 HOW'S THE PERFORMANCE
-0.4771 HOW'S THE WEATHER
-0.6021 I AM IMPRESSED
-0.6021 I AM LOOKING
-0.3010 I ASK YOU
-0.6021 I CAN COUNT
-0.6021 I CAN HELP
-0.3010 I COME BACK
-0.3010 I DON'T WANT
-0.3010 I HAVE A
-0.3010 I LEAVE </s>
-0.3010 I LIVE </s>
-0.3010 I NEED HELP
-0.3010 I REALLY WONDER
-0.3010 I REPEAT </s>
-0.3010 I SAID </s>
-0.3010 I TEACH YOU
-0.3010 I WILL </s>
-0.3010 I WON'T </s>
-0.3010 I WONDER IF
-0.3010 I WORK </s>
-0.3010 I WOULD LIKE
-0.3010 I'D LIKE TO
-0.3010 I'M BACK </s>
-0.3010 I'M FEELING GOOD
-0.3010 I'M GONE </s>
-0.3010 I'M LOOKING FOR
-0.3010 I'M SEARCHING A
-0.3010 ID LIKE TO
-0.4771 IF YOU CAN
-0.7782 IF YOU COULD
-0.3010 IN CHICAGO </s>
-0.3010 IN EIGHT MINUTES
-0.3010 IN EIGHTEEN MINUTES
-0.3010 IN ELEVEN MINUTES
-0.3010 IN FIFTEEN MINUTES
-0.3010 IN FIVE MINUTES
-0.6021 IN FORTY FIVE
-0.6021 IN FORTY MINUTES
-0.3010 IN FOUR MINUTES
-0.3010 IN FOURTEEN MINUTES
-0.3010 IN LONDON </s>
-0.3010 IN LOS ANGELES
-0.3010 IN MUNICH </s>
-0.3010 IN NEW YORK
-0.3010 IN NINE MINUTES
-0.3010 IN NINETEEN MINUTES
-1.1461 IN ONE DAY
-0.6690 IN ONE HOUR
-1.1461 IN ONE MINUTE
-0.8451 IN ONE YEAR
-0.3010 IN SAN FRANCISCO
-0.3010 IN SEVEN MINUTES
-0.3010 IN SEVENTEEN MINUTES
-0.3010 IN SIX MINUTES
-0.3010 IN SIXTEEN MINUTES
-0.3010 IN TEN MINUTES
-0.6021 IN THE BUNDESLIGA
-0.6021 IN THE MORNING
-0.3010 IN THIRTEEN MINUTES
-0.7782 IN THIRTY FIVE
-0.4771 IN THIRTY MINUTES
-0.9031 IN THREE DAYS
-0.9031 IN THREE HOURS
-0.9031 IN THREE MINUTES
-0.9031 IN THREE YEARS
-0.6021 IN TWELVE HOURS
-0.6021 IN TWELVE MINUTES
-0.6021 IN TWENTY FIVE
-0.6021 IN TWENTY MINUTES
-1.1461 IN TWO DAYS
-0.6690 IN TWO HOURS
-1.1461 IN TWO MINUTES
-0.8451 IN TWO YEARS
-0.3010 INCREASE VOLUME </s>
-0.3010 INSIDE MY APPS
-0.3010 INSIDE YOUR MEMORY
-0.3010 INSTALL PROGRAMM </s>
-0.3010 INTERNET CONNECTION </s>
-0.3010 INTERNET EXPLORER </s>
-0.3010 IS A TEST
-0.3010 IS BOSS </s>
-0.3010 IS CORRECT </s>
-0.3010 IS FLORIAN </s>
-0.3010 IS HAPPENING HERE
-0.6021 IS IT </s>
-0.6021 IS IT GOING
-0.3010 IS MY NAME
-0.6021 IS ON THE
-0.6021 IS ON TV
-0.6021 IS PLAYING IN
-0.6021 IS PLAYING SOCCER
-0.3010 IS REALLY GOOD
-1.3802 IS THE MEANING
-1.0792 IS THE NEXT
-1.3802 IS THE QUESTION
-1.3802 IS THE TIME
-0.5351 IS THE WEATHER
-0.3010 IS THERE ANYTHING
-0.6021 IS THIS A
-0.6021 IS THIS WHAT
-0.3010 IS WHAT IS
-0.6021 IS YOUR AGE
-0.6021 IS YOUR NAME
-0.3010 ISN'T IT </s>
-0.3010 IT GOING </s>
-0.3010 IT MEAN </s>
-0.3010 IT ON THE
-0.3010 IT WOULD BE
-0.3010 IT'S A SHORT
-0.3010 IT'S ANNOYING </s>
-0.3010 IT'S TRUE </s>
-0.3010 JAY Z </s>
-0.3010 JIMI HENDRIX </s>
-0.3010 JUSTIN TIMBERLAKE </s>
-0.3010 KATY PERRY </s>
-0.3010 KIDS IN ONE
-0.3010 KIND OF YOU
-0.3010 KINGS OF LEON
-0.6021 KNOW ABOUT MY
-0.6021 KNOW ABOUT YOURSELF
-0.3010 KNOW ARDUINO </s>
-0.3010 KNOW ME </s>
-0.3010 KNOW MY NAME
-0.3010 KNOW SOCCER RESULTS
-0.3010 KNOW WHAT'S INSIDE
-0.3010 KNOW WHERE I
-1.0792 LANGUAGE TO AUSTRALIAN
-1.0792 LANGUAGE TO BRITISH
-1.0792 LANGUAGE TO CANADIAN
-1.0792 LANGUAGE TO ENGLISH
-1.0792 LANGUAGE TO GERMAN
-1.0792 LANGUAGE TO INDIAN
-0.3010 LAST PROCESS </s>
-0.3010 LATEST NEWS OF
-0.3010 LATEST PHYSICS NEWS
-0.3010 LET'S GO </s>
-0.3010 LET'S SEE WHAT
-0.3010 LET'S WATCH A
-0.3010 LIGHTS PLEASE </s>
-0.3010 LIKE IN LOS
-0.5229 LIKE TO HEAR
-1.0000 LIKE TO TEACH
-1.0000 LIKE TO WATCH
-0.3010 LIKE TODAY </s>
-0.3010 LIKE TOMORROW </s>
-0.3010 LIST OF YOUR
-0.3010 LISTEN TO ME
-0.6021 LOAD A HEADLINE
-0.6021 LOAD A PROGRAM
-0.9031 LOAD MY BLOG
-0.9031 LOAD MY FAVORITE
-0.6021 LOAD MY PERSONAL
-0.9031 LOAD THE FIRST
-0.9031 LOAD THE LATEST
-0.9031 LOAD THE SECOND
-0.9031 LOAD THE THIRD
-0.3010 LOCATE ME </s>
-0.3010 LOCATION OF THE
-0.3010 LOOK FOR UPDATES
-0.3979 LOOKING FOR A
-1.0000 LOOKING FOR MUSIC
-0.4771 LOS ANGELES </s>
-0.7782 LOS ANGELES PLEASE
-0.3010 MADE YOU </s>
-0.6021 MAKE A NOTE
-0.6021 MAKE A WEB
-0.3010 MAKE AND INSTALL
-0.3010 MAKE PROGRAMM </s>
-0.3010 MARKET TODAY </s>
-0.3010 MATCH TO MICROSOFT
-0.3010 MATLAB FOR ME
-0.3010 MAY SPEAK AGAIN
-0.9031 ME A LIST
-0.9031 ME A QUOTE
-0.9031 ME A TIMER
-0.9031 ME A TRAIN
-0.6021 ME HOME </s>
-0.6021 ME HOME PLEASE
-0.6021 ME IN FIFTEEN
-0.6021 ME IN TEN
-0.7782 ME OF OUR
-0.7782 ME OF THE
-0.7782 ME OF THIS
-0.3010 ME ONE OF
-0.3010 ME OUR LOCATION
-0.3010 ME PLEASE </s>
-0.3010 ME SOME PHYSICS
-1.4771 ME THE BUNDESLIGA
-1.4771 ME THE CLOSEST
-1.4771 ME THE GERMAN
-1.4771 ME THE LATEST
-1.4771 ME THE LOCATION
-1.1761 ME THE NEWS
-1.1761 ME THE TV
-1.1761 ME THE WAY
-0.8751 ME THE WEATHER
-1.3010 ME TO CATCH
-1.3010 ME TO FETCH
-1.0000 ME TO SWITCH
-1.3010 ME TO TAKE
-1.0000 ME TO THE
-1.3010 ME TO TURN
-1.3010 ME TO WAKE
-1.3010 ME TO WATCH
-0.3010 ME UP AT
-0.6021 ME WHAT HAPPENS
-0.6021 ME WHAT IS
-0.3010 ME YOUR MEMORY
-0.3010 MEANING OF LIFE
-0.3010 MEETING TOMORROW AT
-0.3010 MICHAEL JACKSON </s>
-0.6021 MICROSOFT EXCEL </s>
-0.6021 MICROSOFT EXCEL AND
-0.3010 MICROSOFT POWERPOINT </s>
-0.3010 MICROSOFT WORD </s>
-0.3010 MINUTES PLEASE </s>
-0.6021 MINUTES TO CHECK
-0.6021 MINUTES TO SWITCH
-0.3010 MODE OFF </s>
-0.3010 MODE ON </s>
-0.3010 MODE RIGHT NOW
-0.3010 MOST DEFINITELY IT'S
-0.3010 MOZILLA FIREFOX BROWSER
-0.6021 MUSIC FOR ME
-0.6021 MUSIC FOR US
-1.0000 MUSIC OF DAFT
-1.0000 MUSIC OF JIMI
-1.0000 MUSIC OF KYUSS
-0.6990 MUSIC OF THE
-0.3010 MUSIC ONLINE </s>
-0.3010 MUSIC PLAYER </s>
-0.7782 MY APPS FOLDER
-0.7782 MY APPS FOR
-0.7782 MY APPS LIST
-0.3010 MY BLOG PLEASE
-0.3010 MY BROWSER PLEASE
-0.3010 MY FACEBOOK PAGE
-0.6021 MY FAVORITE BAND
-0.6021 MY FAVORITE TV
-0.3010 MY HOME </s>
-0.3010 MY INTERESTS </s>
-0.3010 MY LOCATION </s>
-0.4771 MY NAME </s>
-0.7782 MY NAME IS
-0.3010 MY NEWS </s>
-0.3010 MY PC </s>
-0.3010 MY PERSONAL NEWS
-0.6021 MY PLACE </s>
-0.6021 MY PLACE TO
-0.3010 MY TO DO
-0.3010 MY TWITTER PAGE
-0.6021 MY WORK </s>
-0.6021 MY WORK TO
-0.3010 NAME AGAIN </s>
-0.6021 NAME IS BOSS
-0.6021 NAME IS FLORIAN
-0.3010 NEAREST FOOD STORE
-0.3010 NEED HELP WITH
-0.3010 NEW COMMAND </s>
-0.3010 NEW VOICE THRESHOLD
-0.4771 NEW YORK </s>
-0.7782 NEW YORK ONLINE
-0.6021 NEWS OF THE
-0.6021 NEWS OF TODAY
-0.3010 NEWS ON CATS
-0.3010 NEWS PLEASE </s>
-0.3010 NEWS TODAY </s>
-0.3010 NEXT BUS COMING
-0.3010 NEXT DRUGSTORE </s>
-0.3010 NEXT PHARMACY </s>
-0.3010 NEXT THING YOU
-0.3010 NICE IF YOU
-0.3010 NICE TO HEAR
-0.3010 NINE MINUTES </s>
-0.3010 NINE O'CLOCK </s>
-0.3010 NINE PM </s>
-0.3010 NINETEEN MINUTES </s>
-0.3010 NINETY PERCENT </s>
-0.3010 NO I WON'T
-0.9031 NO NO </s>
-0.6021 NO NO NO
-0.9031 NO NO THAT'S
-0.3010 NO PROBLEM </s>
-0.3010 NO PROBLEMO </s>
-0.3010 NO THAT'S COMPLETELY
-0.6021 NOTE ON MY
-0.6021 NOTE ON THE
-0.3010 NUMBER FIVE </s>
-0.3010 NUMBER FOUR </s>
-0.3010 NUMBER ONE </s>
-0.3010 NUMBER THREE </s>
-0.3010 NUMBER TWO </s>
-0.3010 O'CLOCK IN THE
-0.3010 OF CATS </s>
-0.3010 OF DAFT PUNK
-0.3010 OF FAMOUS ARTISTS
-0.3010 OF JIMI HENDRIX
-0.3010 OF KYUSS </s>
-0.3010 OF LEON </s>
-0.3010 OF LIFE </s>
-0.3010 OF MY FAVORITE
-0.3010 OF NEW YORK
-0.3010 OF OUR MEETING
-1.0792 OF THE BEST
-1.0792 OF THE BIRTHDAY
-1.0792 OF THE NEAREST
-1.0792 OF THE SHARE
-1.0792 OF THE WHITE
-1.0792 OF THE WORLD
-0.6021 OF THESE NAMES
-0.6021 OF THESE SONGS
-0.3010 OF THIS DAY
-0.3010 OF TODAY </s>
-0.3010 OF YOU </s>
-0.3010 OF YOUR COMMANDS
-0.3010 OFF MY PC
-0.7782 OFF THE COMPUTER
-1.0792 OFF THE GRAMMAR
-1.0792 OFF THE LIGHTS
-1.0792 OFF THE OVEN
-1.0792 OFF THE STOVE
-0.3010 OK BYE BYE
-0.3010 OK LET'S GO
-0.3010 OK SOUNDS GOOD
-0.3010 OLD ARE YOU
-0.3010 ON CATS </s>
-0.3010 ON EXIT </s>
-0.3010 ON MY TO
-0.3010 ON RIGHT NOW
-0.3010 ON START </s>
-1.3802 ON THE GRAMMAR
-1.3802 ON THE LIGHTS
-1.0792 ON THE NEWS
-1.3802 ON THE TELEVISION
-1.3802 ON THE TO
-1.0792 ON THE TV
-0.7782 ON THE WEB
-0.3010 ON TV </s>
-0.3010 ONE DAY </s>
-0.3010 ONE HOUR </s>
-0.3010 ONE MINUTE </s>
-0.3010 ONE O'CLOCK </s>
-0.3010 ONE OF THESE
-0.3010 ONE QUESTION </s>
-0.3010 ONE YEAR </s>
-0.3010 OPEN 9GAG FOR
-0.7782 OPEN A HEADLINE
-0.4771 OPEN A PROGRAM
-0.3010 OPEN BING </s>
-0.3010 OPEN CALCULATOR </s>
-0.3010 OPEN EMAIL </s>
-0.3010 OPEN FACEBOOK </s>
-0.7782 OPEN GOOGLE </s>
-0.7782 OPEN GOOGLE FOR
-0.7782 OPEN GOOGLE PLEASE
-0.7782 OPEN HEADLINE ONE
-0.7782 OPEN HEADLINE THREE
-0.7782 OPEN HEADLINE TWO
-0.3010 OPEN INTERNET EXPLORER
-0.3010 OPEN MAPS </s>
-0.8451 OPEN MY APPS
-1.1461 OPEN MY BLOG
-1.1461 OPEN MY BROWSER
-1.1461 OPEN MY FACEBOOK
-1.1461 OPEN MY NEWS
-1.1461 OPEN MY TWITTER
-0.3010 OPEN SPOTIFY AND
-0.3010 OPEN THE SETTINGS
-0.3010 OPEN TWITTER PLEASE
-0.3010 OPEN WORD PLEASE
-0.3010 OUR LOCATION </s>
-0.3010 OUR MEETING TOMORROW
-0.3010 OUT WHEN I
-0.3010 OVEN IN TWO
-0.3010 PAGE PLEASE </s>
-0.3010 PARIS TO LONDON
-0.3010 PC FOR ME
-0.3010 PDF READER </s>
-0.3010 PERFORMANCE OF THE
-0.3010 PERSONAL DATA </s>
-0.7782 PERSONAL NEWS </s>
-0.4771 PERSONAL NEWS PLEASE
-0.3010 PHARMACY AND START
-0.6021 PHYSICS NEWS </s>
-0.6021 PHYSICS NEWS PLEASE
-0.7782 PICTURES OF CATS
-0.7782 PICTURES OF FAMOUS
-0.7782 PICTURES OF NEW
-0.3010 PLACE TO WORK
-0.3010 PLAY MUSIC </s>
-0.3010 PLAY ONE OF
-0.3010 PLAY SOME MUSIC
-0.3010 PLAYER EVER </s>
-0.3010 PLAYING IN THE
-0.3010 PLAYING SOCCER TODAY
-0.3010 PLEASE CHECK THE
-0.3010 PLEASE FOR TOMORROW
-0.4260 PLEASE OPEN FACEBOOK
-0.9031 PLEASE OPEN GOOGLE
-0.3010 PLEASE PLAY SOME
-0.3010 PLEASE READ THE
-0.3010 PLEASE REMIND ME
-0.3010 PLEASE SHOW ME
-0.6021 PLEASE START MATLAB
-0.6021 PLEASE START POWERPOINT
-0.3010 PLEASE SWITCH OFF
-0.3010 POWER SAVER MODE
-0.3010 POWER SAVING OFF
-0.3010 POWERPOINT FOR ME
-0.3010 PRETTY COOL ISN'T
-0.3010 PROGRAMMED YOU </s>
-0.3010 QUESTION IS WHAT
-0.3010 QUIET PLEASE </s>
-0.3010 READ ME THE
-0.3010 READ MY PERSONAL
-0.3010 READ THE SPORTS
-0.3010 READ THEM PLEASE
-0.3010 REALLY GOOD FOR
-0.3010 REALLY WONDER IF
-0.3010 RELOAD AUDIO ENGINE
-0.3010 RELOAD SOUND ENGINE
-1.1139 REMIND ME IN
-0.9379 REMIND ME OF
-0.5119 REMIND ME TO
-0.3010 REMINDER FOR TOMORROW
-0.3010 REMINDER PLEASE FOR
-0.3010 RESTRICTED AREA </s>
-0.3010 RIGHT NOW </s>
-0.3010 ROLLING STONES </s>
-0.3010 RUN A SELF
-0.6021 RUNNING TIMERS </s>
-0.6021 RUNNING TIMERS PLEASE
-0.4771 SAN FRANCISCO </s>
-0.7782 SAN FRANCISCO TO
-0.3010 SAVE ENERGY </s>
-0.3010 SAVE POWER </s>
-0.3010 SAVE SOME POWER
-0.7782 SAVER MODE </s>
-0.7782 SAVER MODE OFF
-0.7782 SAVER MODE ON
-0.3010 SAVING OFF </s>
-0.6021 SAY SOMETHING CLEVER
-0.6021 SAY SOMETHING FUNNY
-0.3010 SAY YOUR NAME
-0.9031 SEARCH FOR THAT
-0.9031 SEARCH FOR THE
-0.9031 SEARCH FOR UPDATES
-0.9031 SEARCH FOR VIDEOS
-0.3010 SEARCH INSIDE MY
-0.3010 SEARCH IT ON
-0.6021 SEARCH MUSIC OF
-0.6021 SEARCH MUSIC ONLINE
-0.7782 SEARCH PICTURES </s>
-0.4771 SEARCH PICTURES OF
-0.3010 SEARCH SOME MUSIC
-0.3010 SEARCH SPOTIFY FOR
-0.4771 SEARCH THAT ON
-0.7782 SEARCH THAT ONLINE
-0.3010 SEARCH WIKI FOR
-0.3010 SEARCH WIKIPEDIA FOR
-0.3010 SEARCHING A TRAIN
-0.3010 SECOND HEADLINE </s>
-0.3010 SEE HOW I
-0.3010 SEE WHAT YOU
-0.3010 SEE YOU LATER
-0.3010 SELF TEST </s>
-0.3010 SEND EMAIL </s>
-0.3010 SERIES PLEASE </s>
-1.0792 SET A NEW
-0.7782 SET A REMINDER
-0.6021 SET A TIMER
-0.3010 SET AN ALARM
-0.3010 SET DEFAULT SPEECH
-0.3010 SET PERSONAL DATA
-0.3010 SET SPEECH ENGINE
-0.3010 SET VOICE THRESHOLD
-0.3010 SET VOLUME TO
-0.3010 SETTINGS PLEASE </s>
-0.3010 SEVEN MINUTES </s>
-0.3010 SEVEN O'CLOCK </s>
-0.3010 SEVEN PM </s>
-0.3010 SEVENTEEN MINUTES </s>
-0.3010 SHARE MARKET TODAY
-0.3010 SHORT DISTANCE </s>
-0.6021 SHOW ALL RUNNING
-0.6021 SHOW ALL TIMERS
-1.5051 SHOW ME A
-1.5051 SHOW ME OUR
-0.3912 SHOW ME THE
-1.5051 SHOW ME YOUR
-0.3010 SHOW MY LOCATION
-0.6021 SHOW THE TV
-0.6021 SHOW THE WEATHER
-0.3010 SHOW TV PROGRAM
-0.3010 SHUTDOWN THE PC
-0.3010 SHUTDOWN WINDOWS </s>
-0.3010 SILENT MODE OFF
-0.3010 SIX MINUTES </s>
-0.3010 SIX O'CLOCK </s>
-0.3010 SIX PM </s>
-0.3010 SIXTEEN MINUTES </s>
-0.3010 SO FUNNY SOMETIMES
-0.3010 SOCCER RESULTS </s>
-0.3010 SOCCER TODAY </s>
-0.6532 SOME MUSIC </s>
-0.6532 SOME MUSIC FOR
-1.2553 SOME MUSIC OF
-0.3010 SOME PHYSICS NEWS
-0.3010 SOME POWER </s>
-0.3010 SOMETHING CLEVER </s>
-0.3010 SOMETHING FUNNY </s>
-0.3010 SOUND ENGINE </s>
-0.3010 SOUNDS GOOD </s>
-0.3010 SPEAK AGAIN </s>
-0.6021 SPEAK ENGLISH </s>
-0.6021 SPEAK ENGLISH PLEASE
-0.6021 SPEAK GERMAN </s>
-0.6021 SPEAK GERMAN PLEASE
-0.3010 SPEAKER ADAPTION </s>
-0.3010 SPEECH ENGINE </s>
-0.3010 SPEECH RECOGNITION </s>
-0.3010 SPORTS NEWS </s>
-0.3010 SPOTIFY AND SEARCH
-0.3010 SPOTIFY FOR </s>
-0.6021 START A PROGRAM
-0.6021 START A TV
-0.3010 START AN ALARM
-0.3010 START AT MY
-0.3010 START FACEBOOK PLEASE
-0.3010 START GOOGLE CHROME
-0.3010 START IT </s>
-0.3010 START LEARNING </s>
-0.3010 START MATLAB FOR
-0.3010 START POWERPOINT FOR
-0.3010 START PROGRAM </s>
-0.3010 START RECORDING </s>
-0.3010 START SOME MUSIC
-0.3010 START TO LISTEN
-0.3010 START TWITTER PLEASE
-0.3010 STOP A TIMER
-0.7782 STOP ALL RUNNING
-0.4771 STOP ALL TIMERS
-0.3010 STOP LEARNING </s>
-0.3010 STOP LISTENING </s>
-0.3010 STOP RECORDING </s>
-0.3010 SUPERMARKET PLEASE </s>
-0.3010 SWITCH LANGUAGE TO
-1.0792 SWITCH OFF MY
-0.3802 SWITCH OFF THE
-0.3010 SWITCH ON THE
-0.7782 SWITCH TO BASIC
-0.7782 SWITCH TO ENGLISH
-0.7782 SWITCH TO GERMAN
-0.3010 TAKE THE TRASH
-0.3010 TALK TO ME
-0.4771 TEACH MODE </s>
-1.0792 TEACH MODE OFF
-1.0792 TEACH MODE ON
-0.7782 TEACH YOU A
-0.7782 TEACH YOU ANYMORE
-0.7782 TEACH YOU SOMETHING
-0.7782 TELL ME THE
-0.4771 TELL ME WHAT
-0.7782 TEN MINUTES </s>
-0.7782 TEN MINUTES PLEASE
-0.7782 TEN MINUTES TO
-0.3010 TEN O'CLOCK </s>
-0.3010 TEN PM </s>
-0.4771 THANK YOU </s>
-0.7782 THANK YOU AND
-0.3010 THANKS THAT'S VERY
-0.3010 THAT MEAN </s>
-0.3010 THAT ON THE
-0.3010 THAT ONLINE </s>
-0.3010 THAT PLEASE </s>
-0.3010 THAT WAS FAST
-0.3010 THAT'S ANNOYING </s>
-0.3010 THAT'S COMPLETELY WRONG
-0.3010 THAT'S VERY KIND
-0.6021 THE BEST GUITAR
-0.6021 THE BEST MATCH
-0.3010 THE BIRTHDAY IN
-0.3010 THE BROWSER </s>
-0.6021 THE BUNDESLIGA RESULTS
-0.6021 THE BUNDESLIGA TODAY
-0.7782 THE CLOSEST HOSPITAL
-0.7782 THE CLOSEST PHARMACY
-0.7782 THE CLOSEST SUPERMARKET
-0.3010 THE COMMANDS YOU
-0.6021 THE COMPUTER </s>
-0.6021 THE COMPUTER IN
-0.3010 THE DATE TODAY
-0.3010 THE DAY AFTER
-0.4771 THE FIRST </s>
-0.7782 THE FIRST HEADLINE
-0.3010 THE FUTURE HOLD
-0.3010 THE GAME TODAY
-0.3010 THE GERMAN BUNDESLIGA
-0.6021 THE GRAMMAR MODE
-0.6021 THE GRAMMAR RESTRICTIONS
-0.3010 THE HELL IS
-0.3010 THE INTERNET </s>
-0.3010 THE KIDS IN
-0.3010 THE LAST </s>
-0.6021 THE LATEST NEWS
-0.6021 THE LATEST PHYSICS
-0.3010 THE LIGHTS PLEASE
-0.3010 THE LOCATION OF
-0.3010 THE MEANING OF
-0.3010 THE MORNING </s>
-0.3010 THE NEAREST FOOD
-0.6021 THE NEWS </s>
-0.9031 THE NEWS OF
-0.9031 THE NEWS TODAY
-0.9031 THE NEXT BUS
-0.9031 THE NEXT DRUGSTORE
-0.9031 THE NEXT PHARMACY
-0.9031 THE NEXT THING
-0.3010 THE OVEN IN
-0.3010 THE PC FOR
-0.3010 THE PERFORMANCE OF
-0.3010 THE POLICE </s>
-0.6021 THE QUESTION </s>
-0.6021 THE QUESTION IS
-0.3010 THE ROLLING STONES
-0.3010 THE ROOTS </s>
-0.4771 THE SECOND </s>
-0.7782 THE SECOND HEADLINE
-0.6021 THE SETTINGS </s>
-0.6021 THE SETTINGS PLEASE
-0.3010 THE SHARE MARKET
-0.3010 THE SPORTS NEWS
-0.3010 THE STOVE </s>
-0.3010 THE TELEVISION </s>
-0.4771 THE THIRD </s>
-0.7782 THE THIRD HEADLINE
-0.3010 THE TIME </s>
-0.3010 THE TO DO
-0.3010 THE TRAIN IN
-0.3010 THE TRASH OUT
-1.0000 THE TV IN
-0.5229 THE TV PROGRAM
-1.0000 THE TV RIGHT
-0.6021 THE WAY FROM
-0.6021 THE WAY HOME
-0.8751 THE WEATHER </s>
-1.4771 THE WEATHER FOR
-0.7782 THE WEATHER IN
-1.0000 THE WEATHER LIKE
-1.4771 THE WEATHER TODAY
-1.4771 THE WEATHER TOMORROW
-0.3010 THE WEB </s>
-0.3010 THE WHITE STRIPES
-0.3010 THE WIKIPEDIA ARTICLE
-0.3010 THE WORLD AND
-0.3010 THEM PLEASE </s>
-0.3010 THEN CAN YOU
-0.3010 THERE ANYTHING I
-0.3010 THERE TIMERS RUNNING
-0.3010 THESE NAMES </s>
-0.3010 THESE SONGS </s>
-0.3010 THEY CALL ME
-0.3010 THING YOU WANT
-0.3010 THIRD HEADLINE </s>
-0.3010 THIRTEEN MINUTES </s>
-0.6021 THIRTY FIVE </s>
-0.6021 THIRTY FIVE MINUTES
-0.4771 THIRTY MINUTES </s>
-0.7782 THIRTY MINUTES PLEASE
-0.3010 THIS A RESTRICTED
-0.3010 THIS DAY IN
-0.7782 THIS IS A
-0.7782 THIS IS CORRECT
-0.7782 THIS IS REALLY
-0.3010 THIS WHAT YOU
-0.3010 THIS WOLFRAM ALPHA
-0.3010 THREE DAYS </s>
-0.3010 THREE HOURS </s>
-0.3010 THREE MINUTES </s>
-0.3010 THREE O'CLOCK </s>
-0.3010 THREE YEARS </s>
-0.9031 TIMER FOR FIFTEEN
-0.9031 TIMER FOR FIVE
-0.9031 TIMER FOR TEN
-0.9031 TIMER FOR THIRTY
-0.3010 TIMER PLEASE </s>
-0.3010 TIMERS PLEASE </s>
-0.3010 TIMERS RUNNING </s>
-0.3010 TO AUSTRALIAN </s>
-0.3010 TO BASIC SPEECH
-0.3010 TO BRITISH </s>
-0.3010 TO CANADIAN </s>
-0.3010 TO CATCH THE
-0.3010 TO CHECK THE
-0.6021 TO DO </s>
-0.6021 TO DO LIST
-0.6021 TO ENGLISH </s>
-0.6021 TO ENGLISH PLEASE
-0.3010 TO FETCH THE
-0.3010 TO FIFTY PERCENT
-0.3010 TO FULL POWER
-0.6021 TO GERMAN </s>
-0.6021 TO GERMAN PLEASE
-0.9031 TO HEAR </s>
-0.9031 TO HEAR MUSIC
-0.6021 TO HEAR SOME
-0.3010 TO HOME IT'S
-0.3010 TO INDIAN </s>
-0.3010 TO LISTEN </s>
-0.3010 TO LONDON </s>
-0.3010 TO LOS ANGELES
-0.3010 TO ME </s>
-0.3010 TO MICROSOFT EXCEL
-0.3010 TO MY HOME
-0.3010 TO NINETY PERCENT
-0.3010 TO POWER SAVER
-0.4771 TO SWITCH OFF
-0.7782 TO SWITCH ON
-0.3010 TO TAKE THE
-0.3010 TO TEACH YOU
-0.9031 TO THE CLOSEST
-0.9031 TO THE INTERNET
-0.6021 TO THE NEXT
-0.3010 TO TURN OFF
-0.3010 TO WAKE UP
-0.6021 TO WATCH A
-0.6021 TO WATCH THE
-0.3010 TO WORK </s>
-0.3010 TO YOUR MEMORY
-0.3010 TODAY AT EIGHT
-0.7782 TOMORROW AT EIGHT
-0.7782 TOMORROW AT ELEVEN
-0.7782 TOMORROW AT TEN
-0.3010 TOMORROW NINE O'CLOCK
-0.3010 TOTALLY RIGHT </s>
-0.3010 TRAIN CONNECTION FROM
-0.6021 TRAIN FROM HERE
-0.6021 TRAIN FROM MY
-0.3010 TRAIN IN TWO
-0.3010 TRASH OUT WHEN
-0.3010 TURN OFF THE
-0.3010 TURN ON THE
-0.3010 TV IN THIRTY
-0.3010 TV PROGRAM </s>
-0.3010 TV RIGHT NOW
-0.4260 TV SERIES </s>
-0.9031 TV SERIES PLEASE
-0.3010 TWELVE HOURS </s>
-0.3010 TWELVE MINUTES </s>
-0.3010 TWELVE O'CLOCK </s>
-0.6021 TWENTY FIVE </s>
-0.6021 TWENTY FIVE MINUTES
-0.3010 TWENTY FOUR </s>
-0.3010 TWENTY MINUTES </s>
-0.3010 TWENTY ONE </s>
-0.3010 TWENTY THREE </s>
-0.3010 TWENTY TWO </s>
-0.3010 TWITTER PAGE PLEASE
-0.3010 TWITTER PLEASE </s>
-0.3010 TWO DAYS </s>
-0.3010 TWO HOURS </s>
-0.3010 TWO MINUTES </s>
-0.3010 TWO O'CLOCK </s>
-0.3010 TWO YEARS </s>
-0.3010 UP AT EIGHT
-0.3010 UP TOMORROW AT
-0.3010 UPDATE GEOLOCATION </s>
-0.3010 UPDATE LOCATION </s>
-0.3010 UPDATE MY LOCATION
-0.3010 US ISN'T IT
-0.3010 USING GRAMMAR MODE
-0.3010 VERY KIND OF
-0.3010 VIDEOS OF MY
-0.3010 VOICE THRESHOLD </s>
-0.6021 VOLUME TO FIFTY
-0.6021 VOLUME TO NINETY
-0.3010 WAKE ME UP
-0.3010 WAKE UP TOMORROW
-0.6021 WANT TO DO
-0.6021 WANT TO TEACH
-0.3010 WAS FAST </s>
-0.3010 WATCH A TV
-0.3010 WATCH THE GAME
-0.3010 WAY FROM HERE
-0.3010 WAY HOME </s>
-0.3010 WE GO FROM
-0.3010 WE HERE </s>
-0.3010 WEATHER FOR ME
-1.0000 WEATHER IN CHICAGO
-1.0000 WEATHER IN LONDON
-1.0000 WEATHER IN MUNICH
-1.0000 WEATHER IN NEW
-1.0000 WEATHER IN SAN
-0.7782 WEATHER LIKE IN
-0.7782 WEATHER LIKE TODAY
-0.7782 WEATHER LIKE TOMORROW
-0.3010 WEATHER TODAY </s>
-0.3010 WEATHER TOMORROW </s>
-0.3010 WEB SEARCH FOR
-0.6021 WHAT ARE THE
-0.6021 WHAT ARE YOU
-0.6021 WHAT CAN I
-0.6021 WHAT CAN YOU
-0.3010 WHAT DAY IS
-0.3010 WHAT DO YOU
-0.6021 WHAT DOES IT
-0.6021 WHAT DOES THAT
-0.3010 WHAT HAPPENS THEN
-1.3802 WHAT IS MY
-1.0792 WHAT IS ON
-0.5351 WHAT IS THE
-1.0792 WHAT IS YOUR
-0.3010 WHAT THE HELL
-0.3010 WHAT WILL THE
-0.6021 WHAT YOU CAN
-0.6021 WHAT YOU MEAN
-0.3010 WHAT'S GOING ON
-0.3010 WHAT'S INSIDE YOUR
-0.3010 WHAT'S ON THE
-0.3010 WHAT'S YOUR NAME
-0.3010 WHATS MY NAME
-0.6021 WHATS ON THE
-0.6021 WHATS ON TV
-0.6021 WHATS THE DATE
-0.6021 WHATS THE TIME
-0.3010 WHEN EXITING </s>
-0.7782 WHEN I COME
-0.4771 WHEN I LEAVE
-0.6021 WHEN I'M BACK
-0.6021 WHEN I'M GONE
-0.3010 WHEN IS THE
-0.3010 WHEN STARTING </s>
-0.6021 WHEN YOU EXIT
-0.6021 WHEN YOU START
-0.3010 WHERE AM I
-0.6021 WHERE ARE WE
-0.6021 WHERE ARE YOU
-0.4771 WHERE DO I
-0.7782 WHERE DO WE
-0.6021 WHERE I LIVE
-0.6021 WHERE I WORK
-0.3010 WHITE STRIPES </s>
-0.3010 WHO AM I
-0.3010 WHO ARE YOU
-0.3010 WHO CREATED YOU
-0.3010 WHO IS PLAYING
-0.3010 WHO MADE YOU
-0.3010 WHO PROGRAMMED YOU
-0.3010 WHY ARE WE
-0.3010 WIKI FOR THAT
-0.3010 WIKIPEDIA ARTICLE </s>
-0.3010 WIKIPEDIA FOR THAT
-0.3010 WILL THE FUTURE
-0.3010 WITH THE SETTINGS
-0.3010 WOLFRAM ALPHA </s>
-0.3010 WONDER IF YOU
-0.3010 WORD PLEASE </s>
-0.3010 WORK TO HOME
-0.3010 WORLD AND READ
-0.3010 WOULD BE NICE
-0.3010 WOULD LIKE TO
-0.3010 WOW THAT WAS
-0.3010 YES I WILL
-0.3010 YES MOST DEFINITELY
-0.3010 YES THIS IS
-0.3010 YES YOU ARE
-0.3010 YORK ONLINE </s>
-0.3010 YOU A NEW
-0.3010 YOU ABLE TO
-0.3010 YOU AND GOODBYE
-0.3010 YOU ANYMORE </s>
-0.7782 YOU ARE FUNNY
-0.7782 YOU ARE NICE
-0.7782 YOU ARE TOTALLY
-0.3010 YOU BING ME
-1.0000 YOU CAN DO
-1.0000 YOU CAN PLAY
-1.0000 YOU CAN SHUTDOWN
-1.0000 YOU CAN TELL
-1.0000 YOU CAN UNDERSTAND
-0.3010 YOU CONNECTED TO
-0.3010 YOU COULD SHOW
-0.3010 YOU DO </s>
-0.3010 YOU EXIT </s>
-0.3010 YOU FEELING </s>
-0.3010 YOU FIND MUSIC
-0.3010 YOU FROM </s>
-0.3010 YOU GOOGLE THAT
-0.3010 YOU HAVE ACCESS
-0.3010 YOU HEAR ME
-0.3010 YOU HELP ME
-0.9542 YOU KNOW ABOUT
-1.2553 YOU KNOW ARDUINO
-1.2553 YOU KNOW ME
-1.2553 YOU KNOW MY
-1.2553 YOU KNOW SOCCER
-1.2553 YOU KNOW WHAT'S
-0.9542 YOU KNOW WHERE
-0.3010 YOU LATER </s>
-0.3010 YOU LOAD MY
-0.3010 YOU MAY SPEAK
-0.3010 YOU MEAN </s>
-0.7782 YOU OPEN GOOGLE
-0.7782 YOU OPEN TWITTER
-0.7782 YOU OPEN WORD
-0.3010 YOU PLAY SOME
-1.0000 YOU PLEASE OPEN
-0.6990 YOU PLEASE REMIND
-1.0000 YOU PLEASE START
-1.0000 YOU PLEASE SWITCH
-0.3010 YOU READ MY
-0.3010 YOU REMIND ME
-0.6021 YOU SEARCH FOR
-0.6021 YOU SEARCH THAT
-0.3010 YOU SET A
-0.3010 YOU SHOW ME
-0.3010 YOU SOMETHING </s>
-0.7782 YOU SPEAK ENGLISH
-0.4771 YOU SPEAK GERMAN
-0.6021 YOU START </s>
-0.6021 YOU START SOME
-0.3010 YOU STOP A
-0.3010 YOU SWITCH OFF
-0.3010 YOU TELL ME
-0.3010 YOU TODAY </s>
-0.3010 YOU TURN ON
-0.3010 YOU USING GRAMMAR
-0.3010 YOU WANT TO
-0.3010 YOU WITH </s>
-0.3010 YOU'RE SO FUNNY
-0.3010 YOUR AGE </s>
-0.3010 YOUR COMMANDS PLEASE
-0.3010 YOUR MEMORY </s>
-0.4260 YOUR NAME </s>
-0.9031 YOUR NAME AGAIN
-0.3010 ZZ TOP </s>

\end\
